booster[0]:
0:[f16<0.324999988] yes=1,no=2,missing=2
	1:[f12<23.6226006] yes=3,no=4,missing=3
		3:[f13<3.94615006] yes=7,no=8,missing=7
			7:[f7<168722.078] yes=15,no=16,missing=15
				15:leaf=-0
				16:leaf=-0.0270270258
			8:[f8<1762922.12] yes=17,no=18,missing=17
				17:leaf=0.011864407
				18:leaf=-0.0100000007
		4:[f5<-0.0172000006] yes=9,no=10,missing=9
			9:[f13<2.93744993] yes=19,no=20,missing=19
				19:leaf=-0.00416666688
				20:leaf=0.0229508188
			10:[f13<4.18979979] yes=21,no=22,missing=21
				21:leaf=-0.0126984138
				22:leaf=0.0111111114
	2:[f14<2.61115003] yes=5,no=6,missing=5
		5:[f4<3.21000004] yes=11,no=12,missing=11
			11:leaf=0.0137931034
			12:[f12<26.5313988] yes=23,no=24,missing=23
				23:leaf=-0.0391069017
				24:leaf=-0.016809117
		6:[f0<10.8097] yes=13,no=14,missing=13
			13:[f15<2.48535013] yes=25,no=26,missing=25
				25:leaf=0.0111111114
				26:leaf=-0.0209600013
			14:[f5<-0.214450002] yes=27,no=28,missing=27
				27:leaf=-0.0121212127
				28:leaf=0.0158878509
booster[1]:
0:[f16<0.305000007] yes=1,no=2,missing=2
	1:[f10<0.704999983] yes=3,no=4,missing=4
		3:[f5<-0.26700002] yes=7,no=8,missing=7
			7:leaf=-0.000137432973
			8:leaf=0.024206385
		4:[f11<69.9105988] yes=9,no=10,missing=9
			9:[f5<-0.458700001] yes=15,no=16,missing=15
				15:leaf=-0.00794713199
				16:leaf=0.0176454633
			10:[f17<0.284999996] yes=17,no=18,missing=18
				17:leaf=0.0066902251
				18:leaf=-0.0213299934
	2:[f10<0.625] yes=5,no=6,missing=6
		5:[f15<2.23009992] yes=11,no=12,missing=11
			11:[f12<43.0344009] yes=19,no=20,missing=19
				19:leaf=-0.0180248525
				20:leaf=0.00670773862
			12:[f5<0.0282000005] yes=21,no=22,missing=21
				21:leaf=0.013435985
				22:leaf=-0.00976844039
		6:[f2<4.18130016] yes=13,no=14,missing=13
			13:[f11<21.8502007] yes=23,no=24,missing=23
				23:leaf=-0.0201533958
				24:leaf=0.00483411131
			14:[f3<9.34375] yes=25,no=26,missing=25
				25:leaf=-0.0414514802
				26:leaf=-0.02281183
booster[2]:
0:[f16<0.425000012] yes=1,no=2,missing=1
	1:[f15<1.51464999] yes=3,no=4,missing=3
		3:[f9<2.05620003] yes=7,no=8,missing=7
			7:[f13<3.22975016] yes=15,no=16,missing=15
				15:leaf=0.0250239708
				16:leaf=0.00221811119
			8:[f7<213888.906] yes=17,no=18,missing=17
				17:leaf=-0.0180450734
				18:leaf=0.00810210686
		4:[f9<0.554949999] yes=9,no=10,missing=9
			9:[f14<2.93424988] yes=19,no=20,missing=19
				19:leaf=0.0227754824
				20:leaf=-0.00204268657
			10:[f5<-0.146499991] yes=21,no=22,missing=21
				21:leaf=0.00321454438
				22:leaf=-0.0222520512
	2:[f14<2.61320019] yes=5,no=6,missing=5
		5:[f4<3.21000004] yes=11,no=12,missing=11
			11:leaf=0.0128082307
			12:[f7<1140481] yes=23,no=24,missing=23
				23:leaf=-0.03628451
				24:leaf=0.00463059312
		6:[f19<911476.938] yes=13,no=14,missing=13
			13:[f10<0.795000017] yes=25,no=26,missing=26
				25:leaf=-0.010979916
				26:leaf=0.0150530878
			14:[f13<2.32469988] yes=27,no=28,missing=27
				27:leaf=-0.0238199588
				28:leaf=0.00383533142
booster[3]:
0:[f16<0.305000007] yes=1,no=2,missing=2
	1:[f12<21.6683998] yes=3,no=4,missing=3
		3:leaf=-0.0165716056
		4:[f8<703458.375] yes=7,no=8,missing=7
			7:[f18<98541.0547] yes=13,no=14,missing=13
				13:leaf=0.00506972149
				14:leaf=-0.0141994432
			8:[f11<552.820679] yes=15,no=16,missing=15
				15:leaf=0.0171057843
				16:leaf=-0.0104628773
	2:[f14<2.61765003] yes=5,no=6,missing=5
		5:[f12<26.5313988] yes=9,no=10,missing=9
			9:[f0<3.1400001] yes=17,no=18,missing=17
				17:leaf=0.00731793512
				18:leaf=-0.0322745144
			10:[f1<10.0072002] yes=19,no=20,missing=19
				19:leaf=0.00293646217
				20:leaf=-0.022967983
		6:[f8<12501.5107] yes=11,no=12,missing=11
			11:[f3<3.78705001] yes=21,no=22,missing=21
				21:leaf=0.0227198396
				22:leaf=-0.00547575904
			12:[f0<10.8097] yes=23,no=24,missing=23
				23:leaf=-0.0219816621
				24:leaf=0.00264452957
booster[4]:
0:[f10<0.625] yes=1,no=2,missing=2
	1:[f9<0.380649984] yes=3,no=4,missing=3
		3:[f13<2.30810022] yes=7,no=8,missing=7
			7:[f0<3.43359995] yes=15,no=16,missing=15
				15:leaf=0.00231357687
				16:leaf=-0.0230699219
			8:leaf=0.0013641296
		4:[f10<0.465000004] yes=9,no=10,missing=10
			9:[f14<2.60575008] yes=17,no=18,missing=17
				17:leaf=-0.0175806489
				18:leaf=0.00223630737
			10:[f8<821227.438] yes=19,no=20,missing=19
				19:leaf=0.0134921474
				20:leaf=-0.00721405447
	2:[f13<3.94015002] yes=5,no=6,missing=5
		5:[f2<3.37890005] yes=11,no=12,missing=11
			11:[f0<3.25500011] yes=21,no=22,missing=21
				21:leaf=-0.00964169577
				22:leaf=0.0176341049
			12:[f9<6.7263999] yes=23,no=24,missing=23
				23:leaf=-0.0257682744
				24:leaf=0.00173023809
		6:[f11<552.044006] yes=13,no=14,missing=13
			13:[f10<0.935000002] yes=25,no=26,missing=26
				25:leaf=-0.00350263319
				26:leaf=0.0220825002
			14:[f7<336027.062] yes=27,no=28,missing=27
				27:leaf=0.00414316589
				28:leaf=-0.0179302339
booster[5]:
0:[f16<0.435000002] yes=1,no=2,missing=2
	1:[f14<1.37989998] yes=3,no=4,missing=3
		3:leaf=0.023814762
		4:[f10<0.784999967] yes=7,no=8,missing=8
			7:[f7<221866.312] yes=13,no=14,missing=13
				13:leaf=-0.00582269672
				14:leaf=0.02358835
			8:[f13<3.93690014] yes=15,no=16,missing=15
				15:leaf=-0.0198680144
				16:leaf=0.00733083067
	2:[f14<2.62975001] yes=5,no=6,missing=5
		5:[f21<658849.062] yes=9,no=10,missing=9
			9:[f1<3.18499994] yes=17,no=18,missing=17
				17:leaf=-2.98201521e-05
				18:leaf=0.00673409551
			10:[f0<10.7628498] yes=19,no=20,missing=19
				19:leaf=-0.035666734
				20:leaf=-0.0193558522
		6:[f8<12554.7539] yes=11,no=12,missing=11
			11:[f7<14424.8457] yes=21,no=22,missing=21
				21:leaf=-0.00394351082
				22:leaf=0.0182076804
			12:[f8<457189.406] yes=23,no=24,missing=23
				23:leaf=-0.0228679776
				24:leaf=-0.00808966067
booster[6]:
0:[f16<0.305000007] yes=1,no=2,missing=1
	1:[f22<161100] yes=3,no=4,missing=3
		3:[f13<1.59560001] yes=7,no=8,missing=7
			7:[f8<51097.3867] yes=15,no=16,missing=15
				15:leaf=-0.00597675052
				16:leaf=0.0150183085
			8:[f5<-0.0381500013] yes=17,no=18,missing=17
				17:leaf=0.00117462839
				18:leaf=-0.0265650451
		4:[f14<2.98405004] yes=9,no=10,missing=9
			9:[f9<2.24454999] yes=19,no=20,missing=19
				19:leaf=-0.0095128445
				20:leaf=0.00786996912
			10:[f10<0.715000033] yes=21,no=22,missing=22
				21:leaf=-0.00183019997
				22:leaf=0.0188598763
	2:[f15<4.37944984] yes=5,no=6,missing=5
		5:[f4<3.21000004] yes=11,no=12,missing=11
			11:leaf=0.0131535111
			12:[f4<8.86535072] yes=23,no=24,missing=23
				23:leaf=-0.0318730734
				24:leaf=-0.0191590972
		6:[f22<17565960] yes=13,no=14,missing=13
			13:[f8<942850.062] yes=25,no=26,missing=25
				25:leaf=-0.00565147772
				26:leaf=0.0180612225
			14:leaf=-0.0149253756
booster[7]:
0:[f10<0.63499999] yes=1,no=2,missing=2
	1:[f17<0.774999976] yes=3,no=4,missing=4
		3:[f5<0.00985000003] yes=7,no=8,missing=7
			7:[f14<1.18669999] yes=15,no=16,missing=15
				15:leaf=-0.00449209847
				16:leaf=0.0244224798
			8:[f1<10.0422993] yes=17,no=18,missing=17
				17:leaf=0.010864282
				18:leaf=-0.0161488205
		4:[f14<2.55070019] yes=9,no=10,missing=9
			9:[f14<1.17680001] yes=19,no=20,missing=19
				19:leaf=0.00616894523
				20:leaf=-0.0209127422
			10:[f5<-0.0128499996] yes=21,no=22,missing=21
				21:leaf=-0.0113528557
				22:leaf=0.0145484926
	2:[f13<3.9456501] yes=5,no=6,missing=5
		5:[f18<98541.0547] yes=11,no=12,missing=11
			11:[f11<78.4916] yes=23,no=24,missing=23
				23:leaf=0.0144664869
				24:leaf=-0.0132718626
			12:[f14<2.97119999] yes=25,no=26,missing=25
				25:leaf=-0.0293302964
				26:leaf=-0.0158019643
		6:[f8<1969446.25] yes=13,no=14,missing=13
			13:[f5<0.310299993] yes=27,no=28,missing=27
				27:leaf=0.0234744735
				28:leaf=-0.001428116
			14:[f1<60.8403473] yes=29,no=30,missing=29
				29:leaf=-0.0184714366
				30:leaf=0.0153249968
booster[8]:
0:[f16<0.324999988] yes=1,no=2,missing=2
	1:[f5<0.0121999998] yes=3,no=4,missing=3
		3:[f12<25.0120506] yes=7,no=8,missing=7
			7:[f10<0.735000014] yes=15,no=16,missing=16
				15:leaf=0.00615539681
				16:leaf=-0.0125656277
			8:[f1<11.5702991] yes=17,no=18,missing=17
				17:leaf=-0.00479012588
				18:leaf=0.0208035354
		4:[f12<77.1822052] yes=9,no=10,missing=9
			9:[f21<38524804] yes=19,no=20,missing=19
				19:leaf=-0.0233580843
				20:leaf=0.0070698359
			10:leaf=0.0143070044
	2:[f14<2.61759996] yes=5,no=6,missing=5
		5:[f11<45.925251] yes=11,no=12,missing=11
			11:[f22<293389.562] yes=21,no=22,missing=21
				21:leaf=0.00298217381
				22:leaf=-0.0271844696
			12:[f8<290090.469] yes=23,no=24,missing=23
				23:leaf=0.0176637881
				24:leaf=-0.0196131803
		6:[f10<0.63499999] yes=13,no=14,missing=13
			13:[f9<1.05015004] yes=25,no=26,missing=25
				25:leaf=0.0139797749
				26:leaf=-0.00830407906
			14:[f21<711311.5] yes=27,no=28,missing=27
				27:leaf=0.0119112087
				28:leaf=-0.0172169693
booster[9]:
0:[f13<3.94015002] yes=1,no=2,missing=1
	1:[f20<142918.172] yes=3,no=4,missing=3
		3:[f5<-0.163300008] yes=7,no=8,missing=7
			7:[f10<1] yes=13,no=14,missing=14
				13:leaf=0.0200573951
				14:leaf=-0.00236369995
			8:[f14<1.39969993] yes=15,no=16,missing=15
				15:leaf=0.00976357143
				16:leaf=-0.0145122735
		4:[f22<13251426] yes=9,no=10,missing=9
			9:[f5<0.323000014] yes=17,no=18,missing=17
				17:leaf=-0.0328533612
				18:leaf=0.00489885686
			10:[f16<1.39499998] yes=19,no=20,missing=20
				19:leaf=-0.0167904738
				20:leaf=0.0152856801
	2:[f11<552.820679] yes=5,no=6,missing=5
		5:[f11<32.1171989] yes=11,no=12,missing=11
			11:[f1<48.1987495] yes=21,no=22,missing=21
				21:leaf=0.00835542846
				22:leaf=-0.00729931099
			12:leaf=0.0283658691
		6:leaf=-0.0118634691
booster[10]:
0:[f14<0.869349957] yes=1,no=2,missing=1
	1:[f2<7.04500008] yes=3,no=4,missing=3
		3:leaf=-0.00111487857
		4:[f5<0.0450000018] yes=7,no=8,missing=7
			7:leaf=-0.0382140093
			8:[f5<0.13499999] yes=13,no=14,missing=13
				13:leaf=0.00357393525
				14:leaf=-0.0154244751
	2:[f12<6.92525005] yes=5,no=6,missing=5
		5:[f7<915169.5] yes=9,no=10,missing=9
			9:[f4<7.42500019] yes=15,no=16,missing=15
				15:leaf=0.00107337406
				16:leaf=-0.0308430493
			10:[f7<1314681.5] yes=17,no=18,missing=17
				17:leaf=0.0108663002
				18:leaf=-0.00858838856
		6:[f13<1.27579999] yes=11,no=12,missing=11
			11:[f10<0.75] yes=19,no=20,missing=20
				19:leaf=-0.00816624053
				20:leaf=0.0191297028
			12:[f16<0.305000007] yes=21,no=22,missing=22
				21:leaf=0.00128252152
				22:leaf=-0.0117139537
booster[11]:
0:[f16<0.425000012] yes=1,no=2,missing=2
	1:[f11<75.133255] yes=3,no=4,missing=3
		3:[f12<21.7943993] yes=7,no=8,missing=7
			7:[f9<0.545349956] yes=15,no=16,missing=15
				15:leaf=0.00694325939
				16:leaf=-0.0155361369
			8:[f5<0.00490000006] yes=17,no=18,missing=17
				17:leaf=0.0185734797
				18:leaf=0.00354565238
		4:[f10<0.779999971] yes=9,no=10,missing=10
			9:[f8<324818.625] yes=19,no=20,missing=19
				19:leaf=-0.00664863829
				20:leaf=0.0122933527
			10:[f9<1.03154993] yes=21,no=22,missing=21
				21:leaf=0.00490949024
				22:leaf=-0.0232032221
	2:[f15<3.34089994] yes=5,no=6,missing=5
		5:[f8<11703.8613] yes=11,no=12,missing=11
			11:[f9<0.434350014] yes=23,no=24,missing=23
				23:leaf=-0.020085996
				24:leaf=0.0124714533
			12:[f12<37.8297005] yes=25,no=26,missing=25
				25:leaf=-0.0252699796
				26:leaf=-0.00584663404
		6:[f7<491860.625] yes=13,no=14,missing=13
			13:[f22<14787366] yes=27,no=28,missing=27
				27:leaf=6.2295192e-05
				28:leaf=0.0259480178
			14:[f3<11.4660997] yes=29,no=30,missing=29
				29:leaf=-0.0174678452
				30:leaf=0.0143235745
booster[12]:
0:[f9<1.10065007] yes=1,no=2,missing=1
	1:[f15<3.39734983] yes=3,no=4,missing=3
		3:[f17<1.32500005] yes=7,no=8,missing=7
			7:[f11<29.3448486] yes=15,no=16,missing=15
				15:leaf=-0.0308751296
				16:leaf=-0.00406116666
			8:[f2<35.3470497] yes=17,no=18,missing=17
				17:leaf=-0.0162927844
				18:leaf=0.0105699282
		4:[f7<467218.75] yes=9,no=10,missing=9
			9:[f8<1960001.25] yes=19,no=20,missing=19
				19:leaf=0.0154665802
				20:leaf=-0.0103978794
			10:[f13<1.48025] yes=21,no=22,missing=21
				21:leaf=0.0102443593
				22:leaf=-0.0155758513
	2:[f9<1.15649998] yes=5,no=6,missing=5
		5:[f15<1.79745007] yes=11,no=12,missing=11
			11:leaf=-0.00143633015
			12:[f6<0.5] yes=23,no=24,missing=23
				23:leaf=0.00213404815
				24:leaf=0.0221332498
		6:[f2<4.18130016] yes=13,no=14,missing=13
			13:[f21<736002.438] yes=25,no=26,missing=25
				25:leaf=-0.0108316606
				26:leaf=0.0141023612
			14:[f13<2.78454995] yes=27,no=28,missing=27
				27:leaf=-0.0168255288
				28:leaf=-0.00367019582
booster[13]:
0:[f4<10.7194004] yes=1,no=2,missing=1
	1:[f3<3.41079998] yes=3,no=4,missing=3
		3:[f10<0.789999962] yes=7,no=8,missing=8
			7:[f10<0.595000029] yes=15,no=16,missing=16
				15:leaf=0.00592379645
				16:leaf=-0.0182359815
			8:[f17<1.35500002] yes=17,no=18,missing=18
				17:leaf=-0.00352450134
				18:leaf=0.0234854668
		4:[f14<2.91070008] yes=9,no=10,missing=9
			9:[f17<1.17499995] yes=19,no=20,missing=20
				19:leaf=-0.0118692033
				20:leaf=-0.0315428935
			10:[f16<0.834999979] yes=21,no=22,missing=21
				21:leaf=-0.016977217
				22:leaf=0.00748762628
	2:[f3<12.6478004] yes=5,no=6,missing=5
		5:[f17<0.63499999] yes=11,no=12,missing=12
			11:[f8<510297.062] yes=23,no=24,missing=23
				23:leaf=-0.0078051337
				24:leaf=0.00845852029
			12:[f7<641637] yes=25,no=26,missing=25
				25:leaf=0.0297714807
				26:leaf=-0.00370886526
		6:[f13<3.93805003] yes=13,no=14,missing=13
			13:[f17<1.06500006] yes=27,no=28,missing=28
				27:leaf=-0.021843899
				28:leaf=-0.00318544172
			14:[f11<552.432312] yes=29,no=30,missing=29
				29:leaf=0.0105291381
				30:leaf=-0.00873268489
booster[14]:
0:[f16<0.324999988] yes=1,no=2,missing=2
	1:[f11<26.4286995] yes=3,no=4,missing=3
		3:[f10<0.819999993] yes=7,no=8,missing=8
			7:leaf=-0.000902679691
			8:leaf=-0.0128465211
		4:[f11<563.305664] yes=9,no=10,missing=9
			9:[f8<1969446.25] yes=15,no=16,missing=15
				15:leaf=0.0124809584
				16:leaf=-0.00592092099
			10:leaf=-0.0132338097
	2:[f10<0.625] yes=5,no=6,missing=6
		5:[f8<511240.875] yes=11,no=12,missing=11
			11:[f8<17735.7812] yes=17,no=18,missing=17
				17:leaf=0.00423468137
				18:leaf=-0.0171267185
			12:[f21<19528750] yes=19,no=20,missing=19
				19:leaf=0.0215792004
				20:leaf=0.000552804966
		6:[f7<1147031.5] yes=13,no=14,missing=13
			13:[f22<125120] yes=21,no=22,missing=21
				21:leaf=0.00800716877
				22:leaf=-0.0202603694
			14:[f17<0.63499999] yes=23,no=24,missing=23
				23:leaf=-0.0138403969
				24:leaf=0.0122683169
booster[15]:
0:[f13<1.19429994] yes=1,no=2,missing=1
	1:[f11<5.06229973] yes=3,no=4,missing=3
		3:leaf=0.00391573785
		4:[f9<1.09634995] yes=7,no=8,missing=7
			7:[f12<4.29285002] yes=13,no=14,missing=13
				13:leaf=-0.00264267623
				14:leaf=-0.0346307531
			8:leaf=-0.000491468178
	2:[f14<3.01469994] yes=5,no=6,missing=5
		5:[f9<5.10720015] yes=9,no=10,missing=9
			9:[f5<-0.0772500038] yes=15,no=16,missing=15
				15:leaf=-0.00580267375
				16:leaf=-0.0173270274
			10:[f12<69.0132446] yes=17,no=18,missing=17
				17:leaf=-0.00538772717
				18:leaf=0.0164672676
		6:[f4<10.7229004] yes=11,no=12,missing=11
			11:[f17<1.35500002] yes=19,no=20,missing=19
				19:leaf=-0.0100535704
				20:leaf=0.0139664104
			12:[f14<5.71045017] yes=21,no=22,missing=21
				21:leaf=0.0206156448
				22:leaf=-0.00655606342
booster[16]:
0:[f16<0.444999993] yes=1,no=2,missing=2
	1:[f11<78.1277466] yes=3,no=4,missing=3
		3:[f5<0.0147500001] yes=7,no=8,missing=7
			7:[f5<-0.860700011] yes=15,no=16,missing=15
				15:leaf=-0.0101427911
				16:leaf=0.0228087921
			8:[f4<11.9806995] yes=17,no=18,missing=17
				17:leaf=0.0117275305
				18:leaf=-0.0121375993
		4:[f10<0.704999983] yes=9,no=10,missing=10
			9:[f22<19795886] yes=19,no=20,missing=19
				19:leaf=0.0154162152
				20:leaf=-0.00452688755
			10:[f9<7.35249996] yes=21,no=22,missing=21
				21:leaf=-0.0227998104
				22:leaf=0.00661816541
	2:[f21<711187] yes=5,no=6,missing=5
		5:[f10<1.00999999] yes=11,no=12,missing=12
			11:[f5<-0.0525000021] yes=23,no=24,missing=23
				23:leaf=0.00818902813
				24:leaf=-0.0105730118
			12:[f9<0.828249991] yes=25,no=26,missing=25
				25:leaf=0.0231432822
				26:leaf=-0.00248936098
		6:[f14<2.91070008] yes=13,no=14,missing=13
			13:[f2<7.88160038] yes=27,no=28,missing=27
				27:leaf=-0.0275563747
				28:leaf=-0.0145411585
			14:[f16<0.754999995] yes=29,no=30,missing=29
				29:leaf=-0.0135026192
				30:leaf=0.00719875703
booster[17]:
0:[f11<29.1091995] yes=1,no=2,missing=1
	1:[f12<18.7701492] yes=3,no=4,missing=3
		3:[f16<1.58500004] yes=7,no=8,missing=7
			7:[f12<16.9815502] yes=15,no=16,missing=15
				15:leaf=-0.00539492024
				16:leaf=0.0115449959
			8:[f22<289575] yes=17,no=18,missing=17
				17:leaf=0.00618714234
				18:leaf=-0.0264557209
		4:[f9<1.14505005] yes=9,no=10,missing=9
			9:[f10<0.654999971] yes=19,no=20,missing=20
				19:leaf=0.00191386533
				20:leaf=-0.0381720327
			10:[f12<22.6207008] yes=21,no=22,missing=21
				21:leaf=0.00739356643
				22:leaf=-0.0187005848
	2:[f12<23.7105999] yes=5,no=6,missing=5
		5:[f0<56.5850983] yes=11,no=12,missing=11
			11:leaf=0.0260319021
			12:leaf=-0.00248946552
		6:[f10<0.855000019] yes=13,no=14,missing=14
			13:[f10<0.465000004] yes=23,no=24,missing=24
				23:leaf=-0.0135550043
				24:leaf=0.00913093425
			14:[f14<1.37909997] yes=25,no=26,missing=25
				25:leaf=0.0051262374
				26:leaf=-0.0141939325
booster[18]:
0:[f16<0.564999998] yes=1,no=2,missing=2
	1:[f7<140578.438] yes=3,no=4,missing=3
		3:[f11<77.1994019] yes=7,no=8,missing=7
			7:[f8<120426.258] yes=15,no=16,missing=15
				15:leaf=-0.00417986931
				16:leaf=0.0276159402
			8:leaf=-0.00587553065
		4:[f7<224811.438] yes=9,no=10,missing=9
			9:[f17<0.564999998] yes=17,no=18,missing=18
				17:leaf=-0.0262976345
				18:leaf=0.00638504187
			10:[f7<281613.688] yes=19,no=20,missing=19
				19:leaf=0.0178610515
				20:leaf=-0.00645186845
	2:[f2<4.18130016] yes=5,no=6,missing=5
		5:[f2<3.97144985] yes=11,no=12,missing=11
			11:[f8<11394.1074] yes=21,no=22,missing=21
				21:leaf=0.00603042683
				22:leaf=-0.0208262019
			12:[f2<4.02869987] yes=23,no=24,missing=23
				23:leaf=0.0327656902
				24:leaf=0.00287442538
		6:[f12<18.1460495] yes=13,no=14,missing=13
			13:[f12<16.8137512] yes=25,no=26,missing=25
				25:leaf=-0.0123318201
				26:leaf=0.0106344251
			14:[f11<31.8045006] yes=27,no=28,missing=27
				27:leaf=-0.0326756686
				28:leaf=-0.00205363543
booster[19]:
0:[f10<0.625] yes=1,no=2,missing=2
	1:[f13<1.55010009] yes=3,no=4,missing=3
		3:[f8<341139.25] yes=7,no=8,missing=7
			7:[f1<3.38665009] yes=15,no=16,missing=15
				15:leaf=8.7213823e-07
				16:leaf=-0.0258804802
			8:leaf=0.00466876244
		4:[f5<0.0381999984] yes=9,no=10,missing=9
			9:[f8<823654.625] yes=17,no=18,missing=17
				17:leaf=0.0229409263
				18:leaf=-0.00321035204
			10:[f6<0.5] yes=19,no=20,missing=19
				19:leaf=-0.0128750978
				20:leaf=0.00748568634
	2:[f15<4.96364975] yes=5,no=6,missing=5
		5:[f11<45.925251] yes=11,no=12,missing=11
			11:[f13<3.98519993] yes=21,no=22,missing=21
				21:leaf=-0.0180675518
				22:leaf=0.00956449844
			12:[f11<77.5009003] yes=23,no=24,missing=23
				23:leaf=0.00935446005
				24:leaf=-0.0124078784
		6:[f11<15.2660503] yes=13,no=14,missing=13
			13:leaf=0.0233563688
			14:leaf=-0.00480178464
booster[20]:
0:[f13<3.94015002] yes=1,no=2,missing=1
	1:[f15<4.15250015] yes=3,no=4,missing=3
		3:[f11<28.523201] yes=7,no=8,missing=7
			7:[f17<0.965000033] yes=15,no=16,missing=15
				15:leaf=-0.0260554291
				16:leaf=-0.00990601722
			8:[f17<0.514999986] yes=17,no=18,missing=17
				17:leaf=-0.0101420134
				18:leaf=0.0111028329
		4:[f21<20110428] yes=9,no=10,missing=9
			9:[f7<318094.156] yes=19,no=20,missing=19
				19:leaf=-0.00664583221
				20:leaf=0.0179675184
			10:[f5<-0.0439999998] yes=21,no=22,missing=21
				21:leaf=0.00469109183
				22:leaf=-0.0215757322
	2:[f11<552.432312] yes=5,no=6,missing=5
		5:[f7<221424.281] yes=11,no=12,missing=11
			11:leaf=-0.00164040725
			12:[f13<4.18449974] yes=23,no=24,missing=23
				23:leaf=0.026456276
				24:leaf=0.00283875968
		6:[f4<49.0860519] yes=13,no=14,missing=13
			13:leaf=-0.0123359514
			14:leaf=0.00296103
booster[21]:
0:[f17<0.855000019] yes=1,no=2,missing=2
	1:[f7<202959.188] yes=3,no=4,missing=3
		3:[f11<45.6144485] yes=7,no=8,missing=7
			7:[f10<0.699999988] yes=15,no=16,missing=16
				15:leaf=0.00344869844
				16:leaf=-0.0238022096
			8:[f7<172701.062] yes=17,no=18,missing=17
				17:leaf=0.0111889569
				18:leaf=-0.0138450144
		4:[f3<11.3237] yes=9,no=10,missing=9
			9:[f2<9.64385033] yes=19,no=20,missing=19
				19:leaf=0.0114559736
				20:leaf=-0.00982559752
			10:[f11<107.128906] yes=21,no=22,missing=21
				21:leaf=0.0199818816
				22:leaf=-0.00857532863
	2:[f2<4.18130016] yes=5,no=6,missing=5
		5:[f2<3.73745012] yes=11,no=12,missing=11
			11:[f2<3.42254996] yes=23,no=24,missing=23
				23:leaf=0.00843205582
				24:leaf=-0.0192900877
			12:[f13<2.22109985] yes=25,no=26,missing=25
				25:leaf=0.0168403108
				26:leaf=-0.00862375554
		6:[f10<0.86500001] yes=13,no=14,missing=14
			13:[f14<1.42589998] yes=27,no=28,missing=27
				27:leaf=-0.0198697094
				28:leaf=0.00143018865
			14:[f9<0.385399997] yes=29,no=30,missing=29
				29:leaf=0.00135121949
				30:leaf=-0.0272102691
booster[22]:
0:[f11<28.523201] yes=1,no=2,missing=1
	1:[f15<3.7729001] yes=3,no=4,missing=3
		3:[f3<7.11499977] yes=7,no=8,missing=7
			7:[f4<4.26039982] yes=15,no=16,missing=15
				15:leaf=-0.0069683115
				16:leaf=0.0126784584
			8:[f3<9.55914974] yes=17,no=18,missing=17
				17:leaf=-0.0269098822
				18:leaf=-0.00852780975
		4:[f16<0.644999981] yes=9,no=10,missing=10
			9:[f13<1.74729991] yes=19,no=20,missing=19
				19:leaf=-0.0175496787
				20:leaf=2.03320651e-05
			10:[f8<727445.5] yes=21,no=22,missing=21
				21:leaf=-0.00506224437
				22:leaf=0.0134184361
	2:[f10<0.795000017] yes=5,no=6,missing=5
		5:[f9<1.43739998] yes=11,no=12,missing=11
			11:[f16<0.295000017] yes=23,no=24,missing=24
				23:leaf=-0.00417715125
				24:leaf=0.0257241968
			12:[f9<3.05119991] yes=25,no=26,missing=25
				25:leaf=-0.0121184019
				26:leaf=0.0178477187
		6:[f2<9.57740021] yes=13,no=14,missing=13
			13:[f15<3.15689993] yes=27,no=28,missing=27
				27:leaf=0.0159125328
				28:leaf=-0.00985863525
			14:[f9<6.7263999] yes=29,no=30,missing=29
				29:leaf=-0.016362993
				30:leaf=0.0143878264
booster[23]:
0:[f13<1.17820001] yes=1,no=2,missing=1
	1:[f8<798726.5] yes=3,no=4,missing=3
		3:[f9<0.266499996] yes=7,no=8,missing=7
			7:[f7<237480.875] yes=15,no=16,missing=15
				15:leaf=-0.00692182034
				16:leaf=0.00901596341
			8:[f11<5.06229973] yes=17,no=18,missing=17
				17:leaf=-0.00136948982
				18:leaf=-0.0309272949
		4:[f7<1314681.5] yes=9,no=10,missing=9
			9:leaf=0.0123798689
			10:leaf=-0.00558907958
	2:[f11<13.9743004] yes=5,no=6,missing=5
		5:[f5<-0.217099994] yes=11,no=12,missing=11
			11:leaf=-0.0175056495
			12:[f5<0.325100005] yes=19,no=20,missing=19
				19:leaf=0.0140744643
				20:leaf=-0.0129245287
		6:[f5<0.207049996] yes=13,no=14,missing=13
			13:[f5<0.168150008] yes=21,no=22,missing=21
				21:leaf=-0.00590782566
				22:leaf=0.0191080123
			14:[f1<50.8692474] yes=23,no=24,missing=23
				23:leaf=-0.0189756416
				24:leaf=0.0100312997
booster[24]:
0:[f7<11744.7646] yes=1,no=2,missing=1
	1:[f12<16.0723991] yes=3,no=4,missing=3
		3:leaf=0.000234565538
		4:leaf=0.0274423696
	2:[f15<2.67554998] yes=5,no=6,missing=5
		5:[f12<63.97855] yes=7,no=8,missing=7
			7:[f4<11.2326498] yes=11,no=12,missing=11
				11:leaf=-0.0189307462
				12:leaf=-0.00693200761
			8:[f10<0.86500001] yes=13,no=14,missing=14
				13:leaf=0.0169840306
				14:leaf=-0.00575263379
		6:[f15<2.88004994] yes=9,no=10,missing=9
			9:[f6<0.5] yes=15,no=16,missing=15
				15:leaf=0.0324726067
				16:leaf=-0.000636495242
			10:[f15<3.09049988] yes=17,no=18,missing=17
				17:leaf=-0.0191511512
				18:leaf=0.0011583406
booster[25]:
0:[f1<9.00195026] yes=1,no=2,missing=1
	1:[f1<3.45945001] yes=3,no=4,missing=3
		3:[f22<335513.375] yes=7,no=8,missing=7
			7:[f1<2.94500017] yes=15,no=16,missing=15
				15:leaf=-0.000289462478
				16:leaf=0.0223453324
			8:[f13<1.34595001] yes=17,no=18,missing=17
				17:leaf=-0.0158206727
				18:leaf=0.00404138304
		4:[f11<21.6335983] yes=9,no=10,missing=9
			9:[f1<8.71525002] yes=19,no=20,missing=19
				19:leaf=-0.0232312959
				20:leaf=0.00016613942
			10:[f2<4.18130016] yes=21,no=22,missing=21
				21:leaf=0.00865857955
				22:leaf=-0.0141179403
	2:[f22<17958608] yes=5,no=6,missing=5
		5:[f0<35.3358994] yes=11,no=12,missing=11
			11:[f1<13.9443493] yes=23,no=24,missing=23
				23:leaf=0.000656114367
				24:leaf=-0.0212546736
			12:leaf=0.0234766938
		6:[f13<3.69675016] yes=13,no=14,missing=13
			13:[f7<156607.844] yes=25,no=26,missing=25
				25:leaf=-0.00123803667
				26:leaf=-0.0231681895
			14:[f0<47.2290993] yes=27,no=28,missing=27
				27:leaf=-0.00996035058
				28:leaf=0.01002678
booster[26]:
0:[f14<0.869349957] yes=1,no=2,missing=1
	1:[f8<167197.469] yes=3,no=4,missing=3
		3:[f0<6.88000011] yes=7,no=8,missing=7
			7:leaf=-0.00120882725
			8:[f1<8.68340015] yes=13,no=14,missing=13
				13:leaf=-0.0271001607
				14:leaf=-0.00190486701
		4:leaf=0.0032956556
	2:[f12<6.92525005] yes=5,no=6,missing=5
		5:[f8<853130.75] yes=9,no=10,missing=9
			9:[f0<7.41499996] yes=15,no=16,missing=15
				15:leaf=0.00712366495
				16:leaf=-0.0210556723
			10:[f7<1382554.25] yes=17,no=18,missing=17
				17:leaf=0.0164894592
				18:leaf=-0.00621980242
		6:[f13<1.27649999] yes=11,no=12,missing=11
			11:[f6<0.5] yes=19,no=20,missing=19
				19:leaf=0.026674062
				20:leaf=-0.00188737584
			12:[f9<5.07485008] yes=21,no=22,missing=21
				21:leaf=-0.00428624405
				22:leaf=0.0084169386
booster[27]:
0:[f14<2.64454985] yes=1,no=2,missing=1
	1:[f17<3.80499983] yes=3,no=4,missing=4
		3:[f22<22457834] yes=7,no=8,missing=7
			7:[f14<0.765699983] yes=15,no=16,missing=15
				15:leaf=-0.0187190175
				16:leaf=-0.00204641907
			8:[f14<2.59135008] yes=17,no=18,missing=17
				17:leaf=-0.0266176593
				18:leaf=0.00666889688
		4:[f0<7.41499996] yes=9,no=10,missing=9
			9:[f7<326626.562] yes=19,no=20,missing=19
				19:leaf=-0.00516927289
				20:leaf=0.00761661539
			10:[f0<8.97480011] yes=21,no=22,missing=21
				21:leaf=-0.0292332079
				22:leaf=-0.00141517154
	2:[f22<148800] yes=5,no=6,missing=5
		5:[f10<0.574999988] yes=11,no=12,missing=11
			11:leaf=0.00578893116
			12:[f15<2.9046998] yes=23,no=24,missing=23
				23:leaf=0.000140998978
				24:leaf=-0.0215926338
		6:[f12<11.4668999] yes=13,no=14,missing=13
			13:[f0<10.1738501] yes=25,no=26,missing=25
				25:leaf=-0.000873557117
				26:leaf=-0.0213893428
			14:[f10<0.735000014] yes=27,no=28,missing=28
				27:leaf=-0.0015003531
				28:leaf=0.0176736396
booster[28]:
0:[f6<0.5] yes=1,no=2,missing=1
	1:[f17<1.505] yes=3,no=4,missing=3
		3:[f8<151834.484] yes=7,no=8,missing=7
			7:[f22<126160] yes=15,no=16,missing=15
				15:leaf=0.00605776114
				16:leaf=-0.0168136396
			8:[f10<0.795000017] yes=17,no=18,missing=17
				17:leaf=0.0078225201
				18:leaf=-0.00419939356
		4:[f11<15.6529999] yes=9,no=10,missing=9
			9:[f4<7.41499996] yes=19,no=20,missing=19
				19:leaf=0.00835966691
				20:leaf=-0.0174919274
			10:[f21<744231.125] yes=21,no=22,missing=21
				21:leaf=-0.000587258372
				22:leaf=0.0310682599
	2:[f9<5.09060001] yes=5,no=6,missing=5
		5:[f21<711311.5] yes=11,no=12,missing=11
			11:[f11<15.1802006] yes=23,no=24,missing=23
				23:leaf=-0.00763456477
				24:leaf=0.0216560047
			12:[f22<14648949] yes=25,no=26,missing=25
				25:leaf=-0.0220602211
				26:leaf=-0.00650698459
		6:[f9<9.95120049] yes=13,no=14,missing=13
			13:[f5<-0.396099985] yes=27,no=28,missing=27
				27:leaf=-0.0018502929
				28:leaf=0.0248453356
			14:leaf=-0.012025605
booster[29]:
0:[f1<8.65254974] yes=1,no=2,missing=1
	1:[f1<4.34249973] yes=3,no=4,missing=3
		3:[f5<-0.02465] yes=7,no=8,missing=7
			7:[f7<37844.1055] yes=15,no=16,missing=15
				15:leaf=-0.0014696531
				16:leaf=0.0221458301
			8:[f5<0.00779999979] yes=17,no=18,missing=17
				17:leaf=-0.0211258363
				18:leaf=0.000772172061
		4:[f17<1.40499997] yes=9,no=10,missing=9
			9:[f17<0.694999993] yes=19,no=20,missing=20
				19:leaf=0.00453049364
				20:leaf=-0.0311673228
			10:[f16<1.58500004] yes=21,no=22,missing=22
				21:leaf=0.00832983293
				22:leaf=-0.0129680187
	2:[f10<0.625] yes=5,no=6,missing=6
		5:[f15<1.2174499] yes=11,no=12,missing=11
			11:[f15<1.02655005] yes=23,no=24,missing=23
				23:leaf=0.00682899123
				24:leaf=-0.0187268984
			12:[f5<-0.523400009] yes=25,no=26,missing=25
				25:leaf=-0.00612837356
				26:leaf=0.0218689498
		6:[f4<8.74349976] yes=13,no=14,missing=13
			13:leaf=0.0202051755
			14:[f17<1.51499999] yes=27,no=28,missing=27
				27:leaf=-0.00569030782
				28:leaf=0.0150122065
booster[30]:
0:[f17<0.305000007] yes=1,no=2,missing=2
	1:[f11<563.250183] yes=3,no=4,missing=3
		3:[f7<225583.047] yes=7,no=8,missing=7
			7:leaf=-0.000395924406
			8:leaf=0.0292306338
		4:leaf=-0.0049058781
	2:[f13<1.19429994] yes=5,no=6,missing=5
		5:[f8<798726.5] yes=9,no=10,missing=9
			9:[f10<0.620000005] yes=13,no=14,missing=14
				13:leaf=-0.000241191054
				14:leaf=-0.0258635636
			10:[f7<1356049] yes=15,no=16,missing=15
				15:leaf=0.0142993499
				16:leaf=-0.0071315961
		6:[f17<1.34500003] yes=11,no=12,missing=11
			11:[f13<2.27570009] yes=17,no=18,missing=17
				17:leaf=-0.0121839717
				18:leaf=-0.002292149
			12:[f12<16.8804493] yes=19,no=20,missing=19
				19:leaf=0.0167162903
				20:leaf=-0.00730211753
booster[31]:
0:[f10<0.595000029] yes=1,no=2,missing=2
	1:[f10<0.465000004] yes=3,no=4,missing=4
		3:[f10<0.414999992] yes=7,no=8,missing=8
			7:[f10<0.36500001] yes=15,no=16,missing=16
				15:leaf=-0.000889167597
				16:leaf=0.0145113319
			8:[f14<3.04174995] yes=17,no=18,missing=17
				17:leaf=-0.0249984507
				18:leaf=0.000859613356
		4:[f12<11.8382492] yes=9,no=10,missing=9
			9:[f7<424485.688] yes=19,no=20,missing=19
				19:leaf=-0.012292969
				20:leaf=0.00739011122
			10:[f17<1.56500006] yes=21,no=22,missing=22
				21:leaf=0.0264287125
				22:leaf=-0.0012426934
	2:[f17<0.284999996] yes=5,no=6,missing=6
		5:[f11<74.8360443] yes=11,no=12,missing=11
			11:leaf=0.000234255829
			12:leaf=0.0178997535
		6:[f14<2.64424992] yes=13,no=14,missing=13
			13:[f7<431008.375] yes=23,no=24,missing=23
				23:leaf=-0.00624785852
				24:leaf=-0.02146185
			14:[f14<4.04080009] yes=25,no=26,missing=25
				25:leaf=0.00596244447
				26:leaf=-0.0110239508
booster[32]:
0:[f0<4.0859499] yes=1,no=2,missing=1
	1:[f17<1.69500005] yes=3,no=4,missing=4
		3:[f16<1.58500004] yes=7,no=8,missing=8
			7:[f2<3.72919989] yes=15,no=16,missing=15
				15:leaf=-0.00308812666
				16:leaf=0.020895293
			8:[f7<24029.5586] yes=17,no=18,missing=17
				17:leaf=-0.0177656617
				18:leaf=0.00411316473
		4:[f11<20.1758995] yes=9,no=10,missing=9
			9:leaf=0.000318324514
			10:leaf=0.0233420152
	2:[f1<8.2954998] yes=5,no=6,missing=5
		5:[f8<62942.4688] yes=11,no=12,missing=11
			11:[f0<4.25220013] yes=19,no=20,missing=19
				19:leaf=-0.023290975
				20:leaf=0.0103871254
			12:[f11<5.06229973] yes=21,no=22,missing=21
				21:leaf=0.00445636129
				22:leaf=-0.0295773093
		6:[f16<0.88499999] yes=13,no=14,missing=14
			13:[f7<825185.875] yes=23,no=24,missing=23
				23:leaf=0.0013198111
				24:leaf=-0.0144972829
			14:[f7<785786.625] yes=25,no=26,missing=25
				25:leaf=-0.0151090445
				26:leaf=0.0136389527
booster[33]:
0:[f14<2.7114501] yes=1,no=2,missing=1
	1:[f10<1.48500001] yes=3,no=4,missing=4
		3:[f16<0.465000004] yes=7,no=8,missing=8
			7:[f8<289649.188] yes=15,no=16,missing=15
				15:leaf=0.0188953336
				16:leaf=-0.00404350087
			8:[f17<1.30499995] yes=17,no=18,missing=17
				17:leaf=-0.0157519821
				18:leaf=0.000440849515
		4:[f3<3.35519981] yes=9,no=10,missing=9
			9:leaf=0.00688935677
			10:[f22<307125] yes=19,no=20,missing=19
				19:leaf=0.00149569032
				20:leaf=-0.0268047787
	2:[f4<10.7673998] yes=5,no=6,missing=5
		5:[f8<12429.8359] yes=11,no=12,missing=11
			11:[f15<2.85220003] yes=21,no=22,missing=21
				21:leaf=0.0248006359
				22:leaf=-0.00371894101
			12:[f16<0.774999976] yes=23,no=24,missing=23
				23:leaf=-0.00998191442
				24:leaf=0.006497066
		6:[f15<5.2486496] yes=13,no=14,missing=13
			13:[f8<728522.938] yes=25,no=26,missing=25
				25:leaf=-0.00613062223
				26:leaf=0.0249795727
			14:leaf=-0.0072488091
booster[34]:
0:[f9<0.324800014] yes=1,no=2,missing=1
	1:[f17<4.03499985] yes=3,no=4,missing=4
		3:[f7<320600.781] yes=7,no=8,missing=7
			7:[f9<0.289300025] yes=13,no=14,missing=13
				13:leaf=-0.0096142441
				14:leaf=-0.0345344096
			8:leaf=0.00109957729
		4:leaf=0.00362038543
	2:[f10<0.63499999] yes=5,no=6,missing=6
		5:[f9<1.10839999] yes=9,no=10,missing=9
			9:[f5<0.250649989] yes=15,no=16,missing=15
				15:leaf=0.0213215351
				16:leaf=-0.013638163
			10:[f9<2.34759998] yes=17,no=18,missing=17
				17:leaf=-0.0128874332
				18:leaf=0.0148932924
		6:[f9<0.388549984] yes=11,no=12,missing=11
			11:[f10<0.685000002] yes=19,no=20,missing=20
				19:leaf=-0.00873979833
				20:leaf=0.0206869766
			12:[f9<1.07994998] yes=21,no=22,missing=21
				21:leaf=-0.00956243649
				22:leaf=0.000852308352
booster[35]:
0:[f6<0.5] yes=1,no=2,missing=1
	1:[f15<2.6177001] yes=3,no=4,missing=3
		3:[f15<1.46950006] yes=7,no=8,missing=7
			7:[f14<1.42589998] yes=15,no=16,missing=15
				15:leaf=-0.006393563
				16:leaf=0.0141078355
			8:[f22<294300] yes=17,no=18,missing=17
				17:leaf=0.00918626599
				18:leaf=-0.0126430085
		4:[f9<1.04390001] yes=9,no=10,missing=9
			9:[f14<2.61765003] yes=19,no=20,missing=19
				19:leaf=-0.00782135408
				20:leaf=0.0194598641
			10:[f13<1.60794997] yes=21,no=22,missing=21
				21:leaf=0.00815145951
				22:leaf=-0.0130965356
	2:[f12<43.2853508] yes=5,no=6,missing=5
		5:[f13<3.85150003] yes=11,no=12,missing=11
			11:[f2<4.03410006] yes=23,no=24,missing=23
				23:leaf=-0.000584766385
				24:leaf=-0.0208873823
			12:[f3<55.2253494] yes=25,no=26,missing=25
				25:leaf=0.0172601994
				26:leaf=-0.00364154507
		6:[f5<0.354900002] yes=13,no=14,missing=13
			13:[f7<568766.375] yes=27,no=28,missing=27
				27:leaf=0.0184997898
				28:leaf=-0.00645352667
			14:[f9<5.68844986] yes=29,no=30,missing=29
				29:leaf=-0.0215150397
				30:leaf=0.0109040057
booster[36]:
0:[f6<0.5] yes=1,no=2,missing=1
	1:[f16<1.58500004] yes=3,no=4,missing=3
		3:[f17<0.965000033] yes=7,no=8,missing=7
			7:[f15<0.951050043] yes=15,no=16,missing=15
				15:leaf=0.0159148406
				16:leaf=-0.00560426852
			8:[f12<18.8040009] yes=17,no=18,missing=17
				17:leaf=0.0184668992
				18:leaf=-0.00731335953
		4:[f22<293175] yes=9,no=10,missing=9
			9:[f7<10818.2402] yes=19,no=20,missing=19
				19:leaf=-0.0053458116
				20:leaf=0.0111609502
			10:[f5<0.0288999993] yes=21,no=22,missing=21
				21:leaf=-0.0196374003
				22:leaf=0.00599586964
	2:[f17<0.805000007] yes=5,no=6,missing=5
		5:[f7<343618] yes=11,no=12,missing=11
			11:[f7<147370.219] yes=23,no=24,missing=23
				23:leaf=0.00947856065
				24:leaf=-0.01545648
			12:[f7<620399] yes=25,no=26,missing=25
				25:leaf=0.0247589387
				26:leaf=-0.0104180593
		6:[f17<1.71500003] yes=13,no=14,missing=14
			13:[f16<1.375] yes=27,no=28,missing=27
				27:leaf=-0.0222415235
				28:leaf=-0.00198881025
			14:[f17<3.84000015] yes=29,no=30,missing=30
				29:leaf=0.0166213568
				30:leaf=-0.00866896193
booster[37]:
0:[f2<3.36415005] yes=1,no=2,missing=1
	1:[f12<11.9048996] yes=3,no=4,missing=3
		3:[f11<14.1901999] yes=7,no=8,missing=7
			7:[f11<12.7821007] yes=15,no=16,missing=15
				15:leaf=-0.0034906012
				16:leaf=0.0123102525
			8:leaf=-0.011239144
		4:[f5<0.0524500012] yes=9,no=10,missing=9
			9:leaf=0.0277483016
			10:leaf=-0.00313235307
	2:[f6<0.5] yes=5,no=6,missing=5
		5:[f5<0.56735003] yes=11,no=12,missing=11
			11:[f5<-0.0439499989] yes=17,no=18,missing=17
				17:leaf=0.00458855228
				18:leaf=-0.00772412354
			12:leaf=0.0248163715
		6:[f17<0.805000007] yes=13,no=14,missing=13
			13:[f13<1.75985003] yes=19,no=20,missing=19
				19:leaf=-0.0176631324
				20:leaf=0.00103947229
			14:[f16<1.22500002] yes=21,no=22,missing=21
				21:leaf=-0.026954297
				22:leaf=-0.00494121481
booster[38]:
0:[f16<0.284999996] yes=1,no=2,missing=2
	1:[f10<1.10500002] yes=3,no=4,missing=4
		3:[f5<-0.26700002] yes=7,no=8,missing=7
			7:[f5<-0.655400038] yes=15,no=16,missing=15
				15:leaf=0.00720209628
				16:leaf=-0.0147062493
			8:[f21<2503487] yes=17,no=18,missing=17
				17:leaf=-0.00317511335
				18:leaf=0.0237068124
		4:[f5<0.279699981] yes=9,no=10,missing=9
			9:leaf=0.00284138741
			10:leaf=-0.0114822621
	2:[f17<0.514999986] yes=5,no=6,missing=5
		5:[f16<0.444999993] yes=11,no=12,missing=11
			11:[f14<1.37905002] yes=19,no=20,missing=19
				19:leaf=0.0193780493
				20:leaf=-0.01239336
			12:[f14<0.82735002] yes=21,no=22,missing=21
				21:leaf=-0.000400264806
				22:leaf=-0.0314718373
		6:[f12<37.7276497] yes=13,no=14,missing=13
			13:[f5<-0.213850006] yes=23,no=24,missing=23
				23:leaf=-0.0198662709
				24:leaf=-0.00403327867
			14:[f22<2111233.5] yes=25,no=26,missing=25
				25:leaf=0.0223685373
				26:leaf=-0.00354286213
booster[39]:
0:[f15<4.96364975] yes=1,no=2,missing=1
	1:[f11<29.1091995] yes=3,no=4,missing=3
		3:[f17<1.22500002] yes=7,no=8,missing=7
			7:[f13<3.87954998] yes=11,no=12,missing=11
				11:leaf=-0.0158433057
				12:leaf=0.0107538765
			8:[f14<3.3203001] yes=13,no=14,missing=13
				13:leaf=-0.00495838234
				14:leaf=0.0144975055
		4:[f11<77.5009003] yes=9,no=10,missing=9
			9:[f9<8.73200035] yes=15,no=16,missing=15
				15:leaf=0.00877372921
				16:leaf=-0.0130709605
			10:[f15<1.68194997] yes=17,no=18,missing=17
				17:leaf=-0.019518761
				18:leaf=0.00452948315
	2:[f14<5.52180004] yes=5,no=6,missing=5
		5:leaf=0.0261379965
		6:leaf=-0.00579743367
booster[40]:
0:[f13<3.9456501] yes=1,no=2,missing=1
	1:[f4<43.9344025] yes=3,no=4,missing=3
		3:[f13<2.14755011] yes=7,no=8,missing=7
			7:[f10<0.644999981] yes=15,no=16,missing=15
				15:leaf=0.00210246351
				16:leaf=-0.0119636683
			8:[f7<564036.688] yes=17,no=18,missing=17
				17:leaf=0.0058849128
				18:leaf=-0.0109854545
		4:[f7<157278.906] yes=9,no=10,missing=9
			9:[f7<126322.516] yes=19,no=20,missing=19
				19:leaf=-0.0127685284
				20:leaf=0.0156831779
			10:[f9<1.14505005] yes=21,no=22,missing=21
				21:leaf=-0.0275907163
				22:leaf=0.00329409796
	2:[f11<552.432312] yes=5,no=6,missing=5
		5:[f1<46.4872971] yes=11,no=12,missing=11
			11:leaf=-0.00417453749
			12:leaf=0.0311545264
		6:[f10<0.915000021] yes=13,no=14,missing=14
			13:leaf=0.00660525216
			14:leaf=-0.0111408858
booster[41]:
0:[f17<0.784999967] yes=1,no=2,missing=2
	1:[f5<0.167899996] yes=3,no=4,missing=3
		3:[f5<0.0181999989] yes=7,no=8,missing=7
			7:[f16<0.694999993] yes=15,no=16,missing=16
				15:leaf=0.00994272158
				16:leaf=-0.0105769811
			8:[f1<9.34009933] yes=17,no=18,missing=17
				17:leaf=0.0111007206
				18:leaf=-0.0226682089
		4:[f2<12.4635506] yes=9,no=10,missing=9
			9:[f5<0.231900007] yes=19,no=20,missing=19
				19:leaf=0.00201967848
				20:leaf=0.0243282001
			10:[f5<0.246100008] yes=21,no=22,missing=21
				21:leaf=0.0165936165
				22:leaf=-0.0103968587
	2:[f2<4.18560028] yes=5,no=6,missing=5
		5:[f0<3.87284994] yes=11,no=12,missing=11
			11:[f9<0.836099982] yes=23,no=24,missing=23
				23:leaf=0.00190677552
				24:leaf=-0.0185785051
			12:[f17<1.59500003] yes=25,no=26,missing=25
				25:leaf=0.0204043742
				26:leaf=-0.00162528863
		6:[f6<0.5] yes=13,no=14,missing=13
			13:[f1<8.68630028] yes=27,no=28,missing=27
				27:leaf=-0.0153737664
				28:leaf=0.00365926395
			14:[f16<0.784999967] yes=29,no=30,missing=29
				29:leaf=-0.0293525551
				30:leaf=-0.00808581244
booster[42]:
0:[f21<31462706] yes=1,no=2,missing=1
	1:[f0<10.8097] yes=3,no=4,missing=3
		3:[f7<17074.2891] yes=7,no=8,missing=7
			7:[f16<1.69500005] yes=15,no=16,missing=16
				15:leaf=-0.00750263175
				16:leaf=0.0195283405
			8:[f22<13251426] yes=17,no=18,missing=17
				17:leaf=-0.00972785894
				18:leaf=0.00111398718
		4:[f13<3.35905004] yes=9,no=10,missing=9
			9:[f8<1142485.75] yes=19,no=20,missing=19
				19:leaf=0.0166597944
				20:leaf=-0.00356013002
			10:[f17<0.275000006] yes=21,no=22,missing=22
				21:leaf=0.0131473122
				22:leaf=-0.0163640231
	2:[f13<3.94615006] yes=5,no=6,missing=5
		5:[f10<0.545000017] yes=11,no=12,missing=12
			11:[f5<-0.00989999995] yes=23,no=24,missing=23
				23:leaf=-0.00499809114
				24:leaf=0.00817866344
			12:[f2<51.7723007] yes=25,no=26,missing=25
				25:leaf=-0.0247658603
				26:leaf=0.00326392124
		6:[f12<44.2466507] yes=13,no=14,missing=13
			13:[f7<221424.281] yes=27,no=28,missing=27
				27:leaf=-0.00520793116
				28:leaf=0.0180971287
			14:[f22<20669552] yes=29,no=30,missing=29
				29:leaf=-0.0125421314
				30:leaf=0.000145407961
booster[43]:
0:[f13<1.17820001] yes=1,no=2,missing=1
	1:[f8<798726.5] yes=3,no=4,missing=3
		3:[f10<0.704999983] yes=7,no=8,missing=8
			7:[f10<0.63499999] yes=13,no=14,missing=14
				13:leaf=-0.00745837996
				14:leaf=0.00701230858
			8:[f5<-0.114999995] yes=15,no=16,missing=15
				15:leaf=-0.00105756219
				16:leaf=-0.0240346529
		4:[f5<0.127499998] yes=9,no=10,missing=9
			9:leaf=0.0147075299
			10:leaf=-0.00408041524
	2:[f11<8.86605072] yes=5,no=6,missing=5
		5:leaf=0.0204742029
		6:[f9<0.332800001] yes=11,no=12,missing=11
			11:[f14<1.30535007] yes=17,no=18,missing=17
				17:leaf=-0.00115012692
				18:leaf=-0.0203349274
			12:[f10<0.524999976] yes=19,no=20,missing=20
				19:leaf=0.0154626546
				20:leaf=-0.00208433275
booster[44]:
0:[f16<0.305000007] yes=1,no=2,missing=1
	1:[f8<12501.5107] yes=3,no=4,missing=3
		3:[f2<3.87059999] yes=7,no=8,missing=7
			7:[f6<0.5] yes=15,no=16,missing=15
				15:leaf=0.0273474958
				16:leaf=-0.00108730479
			8:leaf=0.00116976444
		4:[f21<804122.375] yes=9,no=10,missing=9
			9:[f21<778500] yes=17,no=18,missing=17
				17:leaf=0.00117325701
				18:leaf=-0.0233834591
			10:[f11<562.639893] yes=19,no=20,missing=19
				19:leaf=0.0106060682
				20:leaf=-0.0101954257
	2:[f17<0.514999986] yes=5,no=6,missing=5
		5:[f1<47.2630005] yes=11,no=12,missing=11
			11:[f7<136034.25] yes=21,no=22,missing=21
				21:leaf=-0.00155708031
				22:leaf=-0.0215910412
			12:leaf=0.01291807
		6:[f9<1.10124993] yes=13,no=14,missing=13
			13:[f14<5.10839987] yes=23,no=24,missing=23
				23:leaf=-0.00874915626
				24:leaf=0.012453693
			14:[f8<1323078.75] yes=25,no=26,missing=25
				25:leaf=0.0163143501
				26:leaf=-0.00415294291
booster[45]:
0:[f18<98541.0547] yes=1,no=2,missing=1
	1:[f5<-0.427049994] yes=3,no=4,missing=3
		3:leaf=-0.00661978219
		4:[f11<80.7061005] yes=7,no=8,missing=7
			7:[f10<1.125] yes=13,no=14,missing=14
				13:leaf=0.0230147354
				14:leaf=0.000262450601
			8:[f3<10.3549004] yes=15,no=16,missing=15
				15:leaf=-0.0102467127
				16:leaf=0.0100929728
	2:[f11<6.54575014] yes=5,no=6,missing=5
		5:[f13<0.852499962] yes=9,no=10,missing=9
			9:[f10<1.08500004] yes=17,no=18,missing=18
				17:leaf=0.0110034756
				18:leaf=-0.00511375349
			10:[f7<1140481] yes=19,no=20,missing=19
				19:leaf=-0.0276048575
				20:leaf=0.00503337849
		6:[f5<-0.317900002] yes=11,no=12,missing=11
			11:[f16<1.375] yes=21,no=22,missing=22
				21:leaf=-0.0181475393
				22:leaf=0.0125941057
			12:[f18<749459.75] yes=23,no=24,missing=23
				23:leaf=-0.0058601019
				24:leaf=0.00360519974
booster[46]:
0:[f11<27.5939503] yes=1,no=2,missing=1
	1:[f10<0.63499999] yes=3,no=4,missing=4
		3:[f17<2.46500015] yes=7,no=8,missing=8
			7:[f14<2.38800001] yes=15,no=16,missing=15
				15:leaf=-0.00492910109
				16:leaf=0.0184795465
			8:leaf=-0.0167625602
		4:[f10<1.11500001] yes=9,no=10,missing=10
			9:[f9<0.708400011] yes=17,no=18,missing=17
				17:leaf=-0.017584892
				18:leaf=0.000412283145
			10:[f11<15.8853998] yes=19,no=20,missing=19
				19:leaf=0.0128274262
				20:leaf=-0.0110420212
	2:[f17<0.504999995] yes=5,no=6,missing=5
		5:[f10<0.704999983] yes=11,no=12,missing=11
			11:[f14<1.19814992] yes=21,no=22,missing=21
				21:leaf=-0.0144841941
				22:leaf=0.0148670524
			12:[f7<344296] yes=23,no=24,missing=23
				23:leaf=-0.00980818551
				24:leaf=0.00600122428
		6:[f8<151766.594] yes=13,no=14,missing=13
			13:[f10<0.814999998] yes=25,no=26,missing=26
				25:leaf=-0.0127279507
				26:leaf=0.00392276561
			14:[f1<56.766098] yes=27,no=28,missing=27
				27:leaf=0.0254296865
				28:leaf=-0.000110183719
booster[47]:
0:[f3<9.30565071] yes=1,no=2,missing=1
	1:[f21<778650.75] yes=3,no=4,missing=3
		3:[f8<25506.3867] yes=7,no=8,missing=7
			7:[f17<1.68499994] yes=15,no=16,missing=15
				15:leaf=-0.00852285605
				16:leaf=0.0145729808
			8:[f22<322200] yes=17,no=18,missing=17
				17:leaf=0.0213270914
				18:leaf=-0.00646400219
		4:[f7<777884.5] yes=9,no=10,missing=9
			9:[f10<2.39499998] yes=19,no=20,missing=19
				19:leaf=-0.0180187058
				20:leaf=0.00805051159
			10:[f5<0.132300004] yes=21,no=22,missing=21
				21:leaf=0.0174656063
				22:leaf=-0.00850412529
	2:[f17<1.19500005] yes=5,no=6,missing=6
		5:[f10<0.795000017] yes=11,no=12,missing=12
			11:[f15<1.26274991] yes=23,no=24,missing=23
				23:leaf=-0.0115737049
				24:leaf=0.0113051524
			12:[f22<2008637] yes=25,no=26,missing=25
				25:leaf=0.0141816651
				26:leaf=-0.00942718145
		6:[f12<16.7873001] yes=13,no=14,missing=13
			13:[f3<39.2546997] yes=27,no=28,missing=27
				27:leaf=0.00948262494
				28:leaf=-0.0117442552
			14:leaf=0.0324206613
booster[48]:
0:[f9<0.324800014] yes=1,no=2,missing=1
	1:[f7<320236.438] yes=3,no=4,missing=3
		3:[f5<0.0132499998] yes=7,no=8,missing=7
			7:[f14<1.31914997] yes=13,no=14,missing=13
				13:leaf=-0.00326211634
				14:leaf=-0.0347409248
			8:[f5<0.194150001] yes=15,no=16,missing=15
				15:leaf=0.0147364018
				16:leaf=-0.0133746881
		4:leaf=0.00961645134
	2:[f10<0.855000019] yes=5,no=6,missing=6
		5:[f5<0.308699995] yes=9,no=10,missing=9
			9:[f8<151834.484] yes=17,no=18,missing=17
				17:leaf=-0.00216007908
				18:leaf=0.0118041867
			10:[f10<0.805000007] yes=19,no=20,missing=20
				19:leaf=-0.0207535829
				20:leaf=0.00203835103
		6:[f9<0.388999999] yes=11,no=12,missing=11
			11:[f14<2.06399989] yes=21,no=22,missing=21
				21:leaf=0.0238251816
				22:leaf=0.00152808509
			12:[f2<4.18560028] yes=23,no=24,missing=23
				23:leaf=0.00810977817
				24:leaf=-0.0101233916
booster[49]:
0:[f5<0.561750054] yes=1,no=2,missing=1
	1:[f1<3.45945001] yes=3,no=4,missing=3
		3:[f22<319387.906] yes=7,no=8,missing=7
			7:[f10<0.745000005] yes=13,no=14,missing=14
				13:leaf=-0.000197153116
				14:leaf=0.0269538295
			8:[f12<11.8870001] yes=15,no=16,missing=15
				15:leaf=-0.0149040921
				16:leaf=0.00787501317
		4:[f8<462681.125] yes=9,no=10,missing=9
			9:[f11<29.2348499] yes=17,no=18,missing=17
				17:leaf=-0.0148037076
				18:leaf=-5.49338001e-05
			10:[f7<157465.984] yes=19,no=20,missing=19
				19:leaf=0.0124905296
				20:leaf=-0.00358641753
	2:[f5<1.87524998] yes=5,no=6,missing=5
		5:[f7<176738.031] yes=11,no=12,missing=11
			11:leaf=-0.00623736484
			12:[f7<253757.438] yes=21,no=22,missing=21
				21:leaf=0.0267485585
				22:leaf=0.00428232085
		6:leaf=-0.00767582608
