booster[0]:
0:[f8<2000584.62] yes=1,no=2,missing=1
	1:[f16<1.48500001] yes=3,no=4,missing=3
		3:[f8<392614.375] yes=7,no=8,missing=7
			7:leaf=-0.00283018872
			8:leaf=-0.0242616031
		4:leaf=0.00416666688
	2:[f8<2147944] yes=5,no=6,missing=5
		5:leaf=0.00660377368
		6:[f3<49.7090492] yes=9,no=10,missing=9
			9:leaf=0.00272727269
			10:leaf=-0.0116438363
booster[1]:
0:[f14<3.03005004] yes=1,no=2,missing=1
	1:[f5<-1.34755003] yes=3,no=4,missing=3
		3:[f10<1.6099999] yes=7,no=8,missing=7
			7:leaf=0.00194568688
			8:leaf=-0.00501828548
		4:[f21<28411034] yes=9,no=10,missing=9
			9:[f21<27476928] yes=11,no=12,missing=11
				11:leaf=-0.00677389139
				12:leaf=0.0031037149
			10:[f8<417330.938] yes=13,no=14,missing=13
				13:leaf=-0.00263983873
				14:leaf=-0.0262414869
	2:[f4<59.2947998] yes=5,no=6,missing=5
		5:leaf=0.00691458909
		6:leaf=-0.00810193177
booster[2]:
0:[f21<28268544] yes=1,no=2,missing=1
	1:[f7<178803.406] yes=3,no=4,missing=3
		3:leaf=0.00409696205
		4:leaf=-0.00477322703
	2:[f3<57.2796478] yes=5,no=6,missing=5
		5:leaf=-0.0236941241
		6:[f3<59.4806519] yes=7,no=8,missing=7
			7:leaf=0.00390185718
			8:leaf=-0.00650615012
booster[3]:
0:[f13<2.14864993] yes=1,no=2,missing=1
	1:[f5<-0.279500008] yes=3,no=4,missing=3
		3:leaf=-0.0116174705
		4:[f0<38.6363983] yes=7,no=8,missing=7
			7:leaf=0.000255988678
			8:leaf=0.00538566057
	2:[f16<1.36500001] yes=5,no=6,missing=5
		5:[f16<0.564999998] yes=9,no=10,missing=9
			9:[f8<850047.875] yes=13,no=14,missing=13
				13:leaf=0.00410277769
				14:leaf=-0.015385163
			10:leaf=-0.027227072
		6:[f15<1.23460007] yes=11,no=12,missing=11
			11:leaf=-0.00597923389
			12:leaf=0.00138070132
booster[4]:
0:[f3<35.550148] yes=1,no=2,missing=1
	1:[f10<1.08000004] yes=3,no=4,missing=3
		3:leaf=-0.00576370535
		4:leaf=0.00727353571
	2:[f8<1963778] yes=5,no=6,missing=5
		5:[f13<2.10685015] yes=7,no=8,missing=7
			7:[f0<38.5516968] yes=11,no=12,missing=11
				11:leaf=-0.00650459994
				12:leaf=0.00233994727
			8:[f7<375777.344] yes=13,no=14,missing=13
				13:leaf=-0.0250864122
				14:leaf=-0.003719036
		6:[f8<2321167] yes=9,no=10,missing=9
			9:[f13<3.99495006] yes=15,no=16,missing=15
				15:leaf=0.0054367166
				16:leaf=-0.00075503852
			10:leaf=-0.0120292818
booster[5]:
0:[f3<38.9099998] yes=1,no=2,missing=1
	1:[f10<0.644999981] yes=3,no=4,missing=3
		3:leaf=0.00500617875
		4:[f1<39.1577988] yes=7,no=8,missing=7
			7:[f10<1.08000004] yes=13,no=14,missing=13
				13:leaf=-0.0142737348
				14:leaf=-0.000659898564
			8:leaf=0.00442622416
	2:[f16<0.275000006] yes=5,no=6,missing=5
		5:[f15<3.47350001] yes=9,no=10,missing=9
			9:leaf=0.00628352305
			10:[f5<0.772799969] yes=15,no=16,missing=15
				15:leaf=-0.0100267045
				16:leaf=0.00118786772
		6:[f7<553424.875] yes=11,no=12,missing=11
			11:[f5<1.35759997] yes=17,no=18,missing=17
				17:leaf=-0.023730265
				18:leaf=-0.00366910477
			12:leaf=-0.00149161078
booster[6]:
0:[f22<17092268] yes=1,no=2,missing=1
	1:[f3<34.3763504] yes=3,no=4,missing=3
		3:leaf=-0.00443324214
		4:leaf=0.00727846986
	2:[f8<2001306.88] yes=5,no=6,missing=5
		5:[f9<1.22514999] yes=7,no=8,missing=7
			7:[f9<0.25999999] yes=11,no=12,missing=11
				11:leaf=-0.00198522862
				12:leaf=-0.0227762535
			8:leaf=0.000529695535
		6:[f9<1.39174998] yes=9,no=10,missing=9
			9:[f5<-0.190750003] yes=13,no=14,missing=13
				13:leaf=-0.00278508337
				14:leaf=0.00774661079
			10:[f6<0.479000002] yes=15,no=16,missing=15
				15:leaf=-0.000495165528
				16:leaf=-0.0121768434
booster[7]:
0:[f8<2000584.62] yes=1,no=2,missing=1
	1:[f16<1.40499997] yes=3,no=4,missing=3
		3:[f5<-1.15404999] yes=7,no=8,missing=7
			7:[f0<48.8082504] yes=13,no=14,missing=13
				13:leaf=-0.00862776767
				14:leaf=0.0046559195
			8:[f13<2.10685015] yes=15,no=16,missing=15
				15:leaf=-0.00135987473
				16:leaf=-0.0227876883
		4:[f8<696067.25] yes=9,no=10,missing=9
			9:leaf=-0.00327504729
			10:leaf=0.00529552484
	2:[f8<2255322.5] yes=5,no=6,missing=5
		5:leaf=0.00822323468
		6:[f6<0.479000002] yes=11,no=12,missing=11
			11:leaf=-0.000402497215
			12:[f22<23656830] yes=17,no=18,missing=17
				17:leaf=-0.00875403453
				18:leaf=-0.000577463186
booster[8]:
0:[f10<0.584999979] yes=1,no=2,missing=1
	1:[f5<0.00970000029] yes=3,no=4,missing=3
		3:[f5<-0.411050022] yes=7,no=8,missing=7
			7:leaf=0.000798223249
			8:leaf=-0.00910300948
		4:leaf=0.00562303932
	2:[f8<2000584.62] yes=5,no=6,missing=5
		5:[f8<419871.75] yes=9,no=10,missing=9
			9:leaf=-0.000424181169
			10:[f9<1.23154998] yes=13,no=14,missing=13
				13:leaf=-0.021899255
				14:leaf=-0.00140049134
		6:[f9<1.23285007] yes=11,no=12,missing=11
			11:leaf=0.0056519201
			12:[f7<632010.625] yes=15,no=16,missing=15
				15:leaf=-0.0101252459
				16:leaf=0.000372399954
booster[9]:
0:[f1<36.3029022] yes=1,no=2,missing=1
	1:[f1<36.0503502] yes=3,no=4,missing=3
		3:[f4<34.0296478] yes=7,no=8,missing=7
			7:leaf=-0.000633683114
			8:leaf=-0.00822847057
		4:leaf=0.0064832638
	2:[f9<0.260850012] yes=5,no=6,missing=5
		5:leaf=-0.00183781551
		6:[f13<4.52235031] yes=9,no=10,missing=9
			9:leaf=-0.0196045935
			10:leaf=-0.00079239218
booster[10]:
0:[f0<37.6054497] yes=1,no=2,missing=1
	1:[f2<36.5802994] yes=3,no=4,missing=3
		3:[f15<1.19370008] yes=7,no=8,missing=7
			7:[f9<0.466000021] yes=13,no=14,missing=13
				13:leaf=-0.00348872738
				14:leaf=0.00526551669
			8:leaf=-0.0104328012
		4:leaf=0.00488767354
	2:[f5<-1.28640008] yes=5,no=6,missing=5
		5:[f10<1.09500003] yes=9,no=10,missing=9
			9:leaf=0.00579499593
			10:leaf=-0.0072041126
		6:[f15<2.72204995] yes=11,no=12,missing=11
			11:[f5<1.35275006] yes=15,no=16,missing=15
				15:leaf=-0.0239627957
				16:leaf=-0.00282625481
			12:[f8<932713.625] yes=17,no=18,missing=17
				17:leaf=0.00416424731
				18:leaf=-0.0128918141
booster[11]:
0:[f21<28268544] yes=1,no=2,missing=1
	1:[f3<34.3763504] yes=3,no=4,missing=3
		3:leaf=-0.00501068728
		4:leaf=0.00734144961
	2:[f10<0.694999993] yes=5,no=6,missing=5
		5:[f16<0.584999979] yes=7,no=8,missing=7
			7:[f10<0.625] yes=11,no=12,missing=11
				11:leaf=-0.00287036155
				12:leaf=0.00876926444
			8:[f2<38.5060501] yes=13,no=14,missing=13
				13:leaf=0.00287491106
				14:leaf=-0.0159984957
		6:[f13<2.12335014] yes=9,no=10,missing=9
			9:[f0<38.4199982] yes=15,no=16,missing=15
				15:leaf=-0.00602301117
				16:leaf=0.00182834349
			10:leaf=-0.0223686472
booster[12]:
0:[f8<2001306.88] yes=1,no=2,missing=1
	1:[f21<28268544] yes=3,no=4,missing=3
		3:[f1<34.9508514] yes=7,no=8,missing=7
			7:leaf=-0.00575454999
			8:leaf=0.00533944461
		4:[f13<2.14864993] yes=9,no=10,missing=9
			9:[f1<39.4150009] yes=15,no=16,missing=15
				15:leaf=-0.00864341296
				16:leaf=0.00593599537
			10:[f17<1.57999992] yes=17,no=18,missing=17
				17:leaf=-0.0210361015
				18:leaf=-0.00180783833
	2:[f8<2308581] yes=5,no=6,missing=5
		5:[f10<0.975000024] yes=11,no=12,missing=11
			11:leaf=0.00744183455
			12:leaf=0.000648865651
		6:[f5<0.332599998] yes=13,no=14,missing=13
			13:leaf=0.00158290227
			14:leaf=-0.00995854009
booster[13]:
0:[f8<1994638.88] yes=1,no=2,missing=1
	1:[f21<28268544] yes=3,no=4,missing=3
		3:[f3<34.3763504] yes=7,no=8,missing=7
			7:leaf=-0.00494826166
			8:leaf=0.00534711359
		4:[f9<1.23154998] yes=9,no=10,missing=9
			9:[f8<415185.5] yes=15,no=16,missing=15
				15:leaf=-0.00190916681
				16:leaf=-0.0209968537
			10:leaf=8.36369218e-05
	2:[f8<2522596] yes=5,no=6,missing=5
		5:[f5<-0.696249962] yes=11,no=12,missing=11
			11:leaf=-0.00261149532
			12:[f8<2255322.5] yes=17,no=18,missing=17
				17:leaf=0.0108175036
				18:leaf=-0.00019639486
		6:[f21<37398968] yes=13,no=14,missing=13
			13:leaf=-0.000314351521
			14:leaf=-0.00988398772
booster[14]:
0:[f21<28268544] yes=1,no=2,missing=1
	1:[f16<1.26499999] yes=3,no=4,missing=3
		3:leaf=-0.00261162431
		4:leaf=0.00618772767
	2:[f3<57.2258492] yes=5,no=6,missing=5
		5:[f11<15.4725494] yes=7,no=8,missing=7
			7:leaf=-0.00132071681
			8:[f9<0.25150001] yes=11,no=12,missing=11
				11:leaf=-0.00247314107
				12:leaf=-0.0184922572
		6:[f15<3.67790008] yes=9,no=10,missing=9
			9:leaf=0.00451091817
			10:leaf=-0.00333998911
booster[15]:
0:[f12<14.8758001] yes=1,no=2,missing=1
	1:[f9<0.468800008] yes=3,no=4,missing=3
		3:leaf=-0.00610742904
		4:[f0<35.3173523] yes=7,no=8,missing=7
			7:leaf=-0.00230899383
			8:leaf=0.00907624885
	2:[f2<51.8358498] yes=5,no=6,missing=5
		5:[f7<375777.344] yes=9,no=10,missing=9
			9:[f16<1.36500001] yes=13,no=14,missing=13
				13:leaf=-0.0205195975
				14:leaf=-0.00196242239
			10:[f9<1.39174998] yes=15,no=16,missing=15
				15:leaf=0.00153802184
				16:leaf=-0.00932047982
		6:[f3<55.6802521] yes=11,no=12,missing=11
			11:leaf=0.00326056778
			12:[f6<-0.257699996] yes=17,no=18,missing=17
				17:leaf=-0.00892677438
				18:leaf=-0.000743870216
booster[16]:
0:[f13<2.14864993] yes=1,no=2,missing=1
	1:[f5<-0.279500008] yes=3,no=4,missing=3
		3:leaf=-0.00419490226
		4:leaf=0.00451630168
	2:[f16<0.564999998] yes=5,no=6,missing=5
		5:[f13<3.77845001] yes=7,no=8,missing=7
			7:[f10<0.875] yes=11,no=12,missing=11
				11:leaf=0.00849476084
				12:leaf=-0.0018581847
			8:[f10<1.42499995] yes=13,no=14,missing=13
				13:leaf=-0.0124451183
				14:leaf=0.00324122654
		6:[f7<421574.688] yes=9,no=10,missing=9
			9:[f12<14.8945007] yes=15,no=16,missing=15
				15:leaf=-0.00183999655
				16:leaf=-0.0214486551
			10:leaf=-0.000379083212
booster[17]:
0:[f22<18820164] yes=1,no=2,missing=1
	1:[f12<15.8689003] yes=3,no=4,missing=3
		3:[f8<992615.125] yes=7,no=8,missing=7
			7:[f9<0.303200006] yes=13,no=14,missing=13
				13:leaf=0.00172501919
				14:leaf=-0.0113915475
			8:[f9<0.869449973] yes=15,no=16,missing=15
				15:leaf=0.00406982703
				16:leaf=-0.00225089164
		4:leaf=0.00549394591
	2:[f16<0.264999986] yes=5,no=6,missing=5
		5:[f2<54.7949486] yes=9,no=10,missing=9
			9:leaf=0.00512422808
			10:[f20<345163.938] yes=17,no=18,missing=17
				17:leaf=0.00342437811
				18:leaf=-0.00830628723
		6:[f2<38.8238525] yes=11,no=12,missing=11
			11:leaf=0.000577427621
			12:[f6<-2.81239986] yes=19,no=20,missing=19
				19:leaf=-0.00308902538
				20:leaf=-0.0195268206
booster[18]:
0:[f15<3.41034985] yes=1,no=2,missing=1
	1:[f12<14.8758001] yes=3,no=4,missing=3
		3:[f13<2.25355005] yes=7,no=8,missing=7
			7:[f10<0.699999988] yes=9,no=10,missing=9
				9:leaf=0.0026902766
				10:leaf=-0.00932420604
			8:leaf=0.00481681153
		4:leaf=-0.0187400468
	2:[f4<59.2947998] yes=5,no=6,missing=5
		5:leaf=0.00949779712
		6:leaf=-0.00983607303
booster[19]:
0:[f12<14.8758001] yes=1,no=2,missing=1
	1:[f12<14.3189497] yes=3,no=4,missing=3
		3:[f5<0.0597499982] yes=7,no=8,missing=7
			7:leaf=-0.00925306976
			8:leaf=0.00199418585
		4:[f13<2.12389994] yes=9,no=10,missing=9
			9:leaf=-0.000795528002
			10:leaf=0.00875588227
	2:[f9<0.284399986] yes=5,no=6,missing=5
		5:leaf=0.000182684089
		6:[f16<0.564999998] yes=11,no=12,missing=11
			11:[f12<22.3837509] yes=13,no=14,missing=13
				13:leaf=0.00308185886
				14:leaf=-0.0139156496
			12:[f0<37.9125519] yes=15,no=16,missing=15
				15:leaf=-0.00401161425
				16:leaf=-0.0186683275
booster[20]:
0:[f16<0.284999996] yes=1,no=2,missing=1
	1:[f11<31.5115013] yes=3,no=4,missing=3
		3:leaf=0.00625179056
		4:[f20<345163.938] yes=7,no=8,missing=7
			7:leaf=0.000964890176
			8:leaf=-0.00855281111
	2:[f1<36.3029022] yes=5,no=6,missing=5
		5:[f4<35.2926025] yes=9,no=10,missing=9
			9:leaf=-0.00469043572
			10:leaf=0.00578900892
		6:[f7<632010.625] yes=11,no=12,missing=11
			11:[f10<0.595000029] yes=13,no=14,missing=13
				13:leaf=-0.0038781804
				14:leaf=-0.0169026162
			12:leaf=-6.83025355e-05
booster[21]:
0:[f3<35.550148] yes=1,no=2,missing=1
	1:[f3<34.3763504] yes=3,no=4,missing=3
		3:leaf=-0.0029379332
		4:leaf=0.00433086371
	2:[f13<4.35319996] yes=5,no=6,missing=5
		5:[f8<416382.812] yes=7,no=8,missing=7
			7:leaf=-0.00100886566
			8:[f6<0.335999995] yes=9,no=10,missing=9
				9:leaf=-0.0108694648
				10:leaf=-0.0197457336
		6:leaf=0.00208609551
booster[22]:
0:[f16<0.335000008] yes=1,no=2,missing=1
	1:[f13<3.99300003] yes=3,no=4,missing=3
		3:[f9<0.671000004] yes=7,no=8,missing=7
			7:[f1<49.5223503] yes=13,no=14,missing=13
				13:leaf=0.00832952186
				14:leaf=-0.000442598393
			8:[f7<345171.938] yes=15,no=16,missing=15
				15:leaf=-0.00833012071
				16:leaf=0.00451691914
		4:[f17<0.735000014] yes=9,no=10,missing=9
			9:[f6<-1.50329995] yes=17,no=18,missing=17
				17:leaf=-0.000509459234
				18:leaf=-0.0147983478
			10:[f4<58.9572983] yes=19,no=20,missing=19
				19:leaf=0.00391512131
				20:leaf=-0.00416918611
	2:[f16<1.45500004] yes=5,no=6,missing=5
		5:[f8<2000969.5] yes=11,no=12,missing=11
			11:[f8<394377.188] yes=21,no=22,missing=21
				21:leaf=-0.000126478786
				22:leaf=-0.0196513627
			12:leaf=0.000805079588
		6:leaf=0.00192005374
booster[23]:
0:[f16<1.34500003] yes=1,no=2,missing=1
	1:[f8<2000584.62] yes=3,no=4,missing=3
		3:[f5<-1.27169991] yes=7,no=8,missing=7
			7:[f10<1.2650001] yes=15,no=16,missing=15
				15:leaf=0.00583257293
				16:leaf=-0.00826355722
			8:[f10<0.584999979] yes=17,no=18,missing=17
				17:leaf=-0.00282884506
				18:leaf=-0.0188336503
		4:[f8<2146947.25] yes=9,no=10,missing=9
			9:leaf=0.00753834471
			10:[f3<49.7090492] yes=19,no=20,missing=19
				19:leaf=0.00355305686
				20:leaf=-0.0114932721
	2:[f7<203317.594] yes=5,no=6,missing=5
		5:[f7<124561.461] yes=11,no=12,missing=11
			11:leaf=0.00416514231
			12:leaf=-0.0117527423
		6:[f8<1138739.12] yes=13,no=14,missing=13
			13:[f14<1.24749994] yes=21,no=22,missing=21
				21:leaf=0.000663049868
				22:leaf=0.00780739589
			14:leaf=-0.00155396166
booster[24]:
0:[f1<36.3029022] yes=1,no=2,missing=1
	1:[f1<36.0503502] yes=3,no=4,missing=3
		3:[f4<33.9058533] yes=7,no=8,missing=7
			7:leaf=0.0015896816
			8:leaf=-0.00713501079
		4:leaf=0.00769299641
	2:[f15<2.14205003] yes=5,no=6,missing=5
		5:[f22<19148032] yes=9,no=10,missing=9
			9:[f13<2.40534997] yes=13,no=14,missing=13
				13:leaf=-0.0115115
				14:leaf=0.000699413707
			10:[f15<1.18134999] yes=15,no=16,missing=15
				15:leaf=-0.00212016725
				16:leaf=-0.021159349
		6:[f9<0.651899993] yes=11,no=12,missing=11
			11:[f0<47.4749527] yes=17,no=18,missing=17
				17:leaf=-0.00462659448
				18:leaf=0.0101393368
			12:[f15<2.47545004] yes=19,no=20,missing=19
				19:leaf=0.00342306541
				20:leaf=-0.0132896928
booster[25]:
0:[f8<1994638.88] yes=1,no=2,missing=1
	1:[f9<1.22514999] yes=3,no=4,missing=3
		3:[f3<37.5510025] yes=7,no=8,missing=7
			7:[f0<35.7581482] yes=13,no=14,missing=13
				13:leaf=-0.00997326244
				14:leaf=0.00450128643
			8:[f0<56.1497993] yes=15,no=16,missing=15
				15:leaf=-0.0164385717
				16:leaf=-0.000996123767
		4:leaf=0.000752609223
	2:[f9<1.44385004] yes=5,no=6,missing=5
		5:[f5<-0.190750003] yes=9,no=10,missing=9
			9:leaf=-0.000117520081
			10:leaf=0.0100476155
		6:[f5<-0.0339000002] yes=11,no=12,missing=11
			11:leaf=0.00205516838
			12:leaf=-0.00986329746
booster[26]:
0:[f15<1.15050006] yes=1,no=2,missing=1
	1:[f7<130667.531] yes=3,no=4,missing=3
		3:leaf=0.00698794797
		4:[f7<215538.875] yes=7,no=8,missing=7
			7:leaf=-0.00949292816
			8:leaf=0.00665304577
	2:[f15<3.41034985] yes=5,no=6,missing=5
		5:[f1<36.2583504] yes=9,no=10,missing=9
			9:[f7<179073.281] yes=13,no=14,missing=13
				13:leaf=0.00409774249
				14:leaf=-0.00484756334
			10:[f8<1992451] yes=15,no=16,missing=15
				15:leaf=-0.0175165664
				16:leaf=-0.00393153261
		6:[f15<3.49944997] yes=11,no=12,missing=11
			11:leaf=0.00724353222
			12:[f13<4.19829988] yes=17,no=18,missing=17
				17:leaf=-0.00845909584
				18:leaf=0.000892917917
booster[27]:
0:[f13<2.10685015] yes=1,no=2,missing=1
	1:[f11<15.4108505] yes=3,no=4,missing=3
		3:leaf=-0.0026509997
		4:leaf=0.00516239693
	2:[f16<0.275000006] yes=5,no=6,missing=5
		5:[f2<54.3987999] yes=7,no=8,missing=7
			7:leaf=0.00624620728
			8:[f20<345163.938] yes=11,no=12,missing=11
				11:leaf=0.0025763351
				12:leaf=-0.00873321109
		6:[f9<1.60829997] yes=9,no=10,missing=9
			9:[f16<1.42499995] yes=13,no=14,missing=13
				13:leaf=-0.0159956254
				14:leaf=-0.000477214897
			10:leaf=-0.000887622882
booster[28]:
0:[f21<28411034] yes=1,no=2,missing=1
	1:[f3<34.3813019] yes=3,no=4,missing=3
		3:leaf=-0.00333304587
		4:leaf=0.00528928498
	2:[f15<1.99629998] yes=5,no=6,missing=5
		5:[f15<1.1493001] yes=7,no=8,missing=7
			7:[f0<38.7549973] yes=11,no=12,missing=11
				11:leaf=-0.00754295895
				12:leaf=0.00384119409
			8:[f10<0.665000021] yes=13,no=14,missing=13
				13:leaf=-0.00402761111
				14:leaf=-0.0189208742
		6:[f7<181462.062] yes=9,no=10,missing=9
			9:[f5<0.053799998] yes=15,no=16,missing=15
				15:leaf=5.56360246e-05
				16:leaf=0.0074053742
			10:[f10<1.41999996] yes=17,no=18,missing=17
				17:leaf=-0.0106398417
				18:leaf=0.000957196055
booster[29]:
0:[f12<14.8793507] yes=1,no=2,missing=1
	1:[f0<35.6994019] yes=3,no=4,missing=3
		3:[f4<33.9058533] yes=7,no=8,missing=7
			7:leaf=0.000872543722
			8:leaf=-0.00783160701
		4:[f1<37.7700005] yes=9,no=10,missing=9
			9:leaf=0.0111295702
			10:leaf=-0.0056661861
	2:[f3<53.8265495] yes=5,no=6,missing=5
		5:[f7<375777.344] yes=11,no=12,missing=11
			11:[f6<-1.39565003] yes=15,no=16,missing=15
				15:leaf=-0.00557447691
				16:leaf=-0.0176394768
			12:[f9<1.23444998] yes=17,no=18,missing=17
				17:leaf=0.00331912073
				18:leaf=-0.00738491584
		6:[f15<3.68984985] yes=13,no=14,missing=13
			13:[f7<332319.438] yes=19,no=20,missing=19
				19:leaf=-0.00191950053
				20:leaf=0.00832699984
			14:leaf=-0.0077751833
booster[30]:
0:[f17<1.36500001] yes=1,no=2,missing=1
	1:[f8<2000584.62] yes=3,no=4,missing=3
		3:[f22<18661292] yes=7,no=8,missing=7
			7:[f3<38.6564026] yes=13,no=14,missing=13
				13:leaf=-0.00620834716
				14:leaf=0.00450586248
			8:leaf=-0.0168766901
		4:[f8<2308581] yes=9,no=10,missing=9
			9:leaf=0.00653092284
			10:[f7<624732.875] yes=15,no=16,missing=15
				15:leaf=-0.00942716934
				16:leaf=0.000134592745
	2:[f10<0.625] yes=5,no=6,missing=5
		5:leaf=0.00908432435
		6:[f15<1.301] yes=11,no=12,missing=11
			11:[f15<1.20815003] yes=17,no=18,missing=17
				17:leaf=0.00134453643
				18:leaf=-0.0121886656
			12:leaf=0.00263056299
booster[31]:
0:[f22<19504620] yes=1,no=2,missing=1
	1:[f10<0.625] yes=3,no=4,missing=3
		3:[f6<0.0208000001] yes=7,no=8,missing=7
			7:leaf=0.000427147199
			8:leaf=0.00955257937
		4:[f9<0.628899992] yes=9,no=10,missing=9
			9:[f4<39.8686485] yes=15,no=16,missing=15
				15:leaf=-0.0117512457
				16:leaf=0.00345679256
			10:[f9<0.765900016] yes=17,no=18,missing=17
				17:leaf=0.00715851784
				18:leaf=-0.0048663849
	2:[f14<2.81869984] yes=5,no=6,missing=5
		5:[f6<3.48784995] yes=11,no=12,missing=11
			11:[f6<-2.76200008] yes=19,no=20,missing=19
				19:leaf=-0.00201897998
				20:leaf=-0.0177170578
			12:leaf=-0.00135994109
		6:[f0<57.2014008] yes=13,no=14,missing=13
			13:[f2<54.819397] yes=21,no=22,missing=21
				21:leaf=0.00668365601
				22:leaf=0.000192222069
			14:[f9<0.992349982] yes=23,no=24,missing=23
				23:leaf=0.000297212187
				24:leaf=-0.00723160524
booster[32]:
0:[f8<2000584.62] yes=1,no=2,missing=1
	1:[f16<1.48500001] yes=3,no=4,missing=3
		3:[f11<15.5261993] yes=7,no=8,missing=7
			7:[f0<36.7342987] yes=11,no=12,missing=11
				11:leaf=0.00419879518
				12:leaf=-0.00466747349
			8:[f9<1.23154998] yes=13,no=14,missing=13
				13:leaf=-0.0143678533
				14:leaf=-0.000438124698
		4:leaf=0.00343155488
	2:[f8<2147176] yes=5,no=6,missing=5
		5:leaf=0.00946892053
		6:[f14<2.51375008] yes=9,no=10,missing=9
			9:leaf=0.00180480478
			10:[f7<553854] yes=15,no=16,missing=15
				15:leaf=-0.00943502318
				16:leaf=0.000190528081
booster[33]:
0:[f16<1.36500001] yes=1,no=2,missing=1
	1:[f16<0.564999998] yes=3,no=4,missing=3
		3:[f12<21.3206997] yes=7,no=8,missing=7
			7:[f10<0.86500001] yes=13,no=14,missing=13
				13:leaf=0.0092620356
				14:leaf=-0.000330571289
			8:[f17<0.784999967] yes=15,no=16,missing=15
				15:leaf=-0.0112750903
				16:leaf=0.00194251537
		4:[f12<14.7931499] yes=9,no=10,missing=9
			9:[f0<35.7977524] yes=17,no=18,missing=17
				17:leaf=-0.00405756757
				18:leaf=0.0042715189
			10:[f7<421930.25] yes=19,no=20,missing=19
				19:leaf=-0.0157248136
				20:leaf=-0.000732450339
	2:[f14<1.43455005] yes=5,no=6,missing=5
		5:[f0<38.7262497] yes=11,no=12,missing=11
			11:[f0<36.7342987] yes=21,no=22,missing=21
				21:leaf=3.39510843e-05
				22:leaf=-0.0086919684
			12:leaf=0.00262777833
		6:leaf=0.00584048266
booster[34]:
0:[f8<2000584.62] yes=1,no=2,missing=1
	1:[f5<-1.15225005] yes=3,no=4,missing=3
		3:[f11<24.9895] yes=7,no=8,missing=7
			7:leaf=-0.00432445994
			8:leaf=0.00526443077
		4:[f8<415185.5] yes=9,no=10,missing=9
			9:leaf=0.000565902796
			10:[f20<345163.938] yes=15,no=16,missing=15
				15:leaf=-0.00538972393
				16:leaf=-0.0154237589
	2:[f9<1.39174998] yes=5,no=6,missing=5
		5:[f4<57.7394028] yes=11,no=12,missing=11
			11:leaf=0.00983516686
			12:leaf=-0.00123972015
		6:[f9<1.8664999] yes=13,no=14,missing=13
			13:leaf=-0.00830254983
			14:leaf=0.00129722094
booster[35]:
0:[f1<39.9580002] yes=1,no=2,missing=1
	1:[f21<30591932] yes=3,no=4,missing=3
		3:[f21<28268544] yes=7,no=8,missing=7
			7:[f7<178803.406] yes=15,no=16,missing=15
				15:leaf=0.00573399616
				16:leaf=-0.00228691287
			8:[f13<2.29804993] yes=17,no=18,missing=17
				17:leaf=-0.0016099537
				18:leaf=-0.0110604735
		4:[f14<1.64055002] yes=9,no=10,missing=9
			9:[f13<2.12765002] yes=19,no=20,missing=19
				19:leaf=-0.000202188152
				20:leaf=0.00909180287
			10:leaf=-0.00107433565
	2:[f13<3.3583498] yes=5,no=6,missing=5
		5:[f4<39.4167023] yes=11,no=12,missing=11
			11:leaf=-0.000455296104
			12:leaf=-0.0190141238
		6:[f1<44.9648514] yes=13,no=14,missing=13
			13:[f13<3.8348] yes=21,no=22,missing=21
				21:leaf=0.0093154069
				22:leaf=-0.000683427672
			14:[f6<-2.24394989] yes=23,no=24,missing=23
				23:leaf=0.00390862813
				24:leaf=-0.0106316758
booster[36]:
0:[f10<0.595000029] yes=1,no=2,missing=1
	1:[f17<1.28499997] yes=3,no=4,missing=3
		3:[f14<2.52605009] yes=7,no=8,missing=7
			7:leaf=-0.0112358322
			8:leaf=0.000935952179
		4:leaf=0.00904645305
	2:[f16<1.34500003] yes=5,no=6,missing=5
		5:[f1<53.8244476] yes=9,no=10,missing=9
			9:[f5<-0.518450022] yes=13,no=14,missing=13
				13:leaf=-0.00600546179
				14:leaf=-0.0180158969
			10:[f2<54.3987999] yes=15,no=16,missing=15
				15:leaf=0.00656929938
				16:leaf=-0.00731418608
		6:[f4<38.8499985] yes=11,no=12,missing=11
			11:[f1<36.3326492] yes=17,no=18,missing=17
				17:leaf=0.00351528986
				18:leaf=-0.0105978725
			12:[f10<0.975000024] yes=19,no=20,missing=19
				19:leaf=0.0093060676
				20:leaf=-0.00304292561
booster[37]:
0:[f2<51.7233963] yes=1,no=2,missing=1
	1:[f17<1.495] yes=3,no=4,missing=3
		3:[f5<-1.80795002] yes=7,no=8,missing=7
			7:leaf=0.000757219677
			8:[f15<2.98495007] yes=13,no=14,missing=13
				13:leaf=-0.0144685199
				14:leaf=-0.00340069132
		4:[f12<14.35355] yes=9,no=10,missing=9
			9:leaf=-0.00705135614
			10:leaf=0.00712073175
	2:[f15<3.68984985] yes=5,no=6,missing=5
		5:[f9<0.827600002] yes=11,no=12,missing=11
			11:leaf=-0.00112281065
			12:[f9<1.19639993] yes=15,no=16,missing=15
				15:leaf=0.00981129427
				16:leaf=0.000108128785
		6:leaf=-0.00666843494
booster[38]:
0:[f1<39.9580002] yes=1,no=2,missing=1
	1:[f15<1.20815003] yes=3,no=4,missing=3
		3:[f15<1.15744996] yes=7,no=8,missing=7
			7:[f7<124636.547] yes=15,no=16,missing=15
				15:leaf=0.00618497794
				16:leaf=-0.00652904948
			8:leaf=0.00975508895
		4:[f13<2.40534997] yes=9,no=10,missing=9
			9:[f15<1.27750003] yes=17,no=18,missing=17
				17:leaf=-0.011990645
				18:leaf=-0.000603253779
			10:[f8<869196.5] yes=19,no=20,missing=19
				19:leaf=-0.00240372308
				20:leaf=0.00639613718
	2:[f2<51.7233963] yes=5,no=6,missing=5
		5:[f22<18831908] yes=11,no=12,missing=11
			11:leaf=-0.00133322168
			12:[f15<1.15050006] yes=21,no=22,missing=21
				21:leaf=-0.000962944701
				22:leaf=-0.0153850382
		6:[f13<3.88705015] yes=13,no=14,missing=13
			13:leaf=0.00402944302
			14:[f5<0.777699947] yes=23,no=24,missing=23
				23:leaf=-0.00814963039
				24:leaf=0.000812237733
booster[39]:
0:[f16<0.834999979] yes=1,no=2,missing=1
	1:[f17<0.784999967] yes=3,no=4,missing=3
		3:[f0<44.2521515] yes=7,no=8,missing=7
			7:leaf=0.00551667623
			8:[f1<60.1506996] yes=13,no=14,missing=13
				13:leaf=-0.0104157273
				14:leaf=0.00236857287
		4:leaf=0.0101708584
	2:[f1<36.3029022] yes=5,no=6,missing=5
		5:[f1<36.0503502] yes=9,no=10,missing=9
			9:[f4<34.0742493] yes=15,no=16,missing=15
				15:leaf=0.00197733543
				16:leaf=-0.00519475853
			10:leaf=0.00606484711
		6:[f7<421574.688] yes=11,no=12,missing=11
			11:[f12<21.7378006] yes=17,no=18,missing=17
				17:leaf=-0.0150947468
				18:leaf=-0.000593572622
			12:leaf=0.00125591655
booster[40]:
0:[f20<345163.938] yes=1,no=2,missing=1
	1:[f17<0.705000043] yes=3,no=4,missing=3
		3:[f1<44.9648514] yes=7,no=8,missing=7
			7:[f15<2.37760019] yes=11,no=12,missing=11
				11:leaf=0.00854299776
				12:leaf=-0.000470426487
			8:[f7<205206.344] yes=13,no=14,missing=13
				13:leaf=0.00161583931
				14:leaf=-0.0126449736
		4:leaf=0.00878291298
	2:[f17<1.57500005] yes=5,no=6,missing=5
		5:[f9<0.25150001] yes=9,no=10,missing=9
			9:leaf=0.000320008199
			10:[f16<1.45500004] yes=15,no=16,missing=15
				15:leaf=-0.0152008003
				16:leaf=-0.0019091377
		6:leaf=0.00102147041
booster[41]:
0:[f3<35.7433014] yes=1,no=2,missing=1
	1:[f1<34.9508514] yes=3,no=4,missing=3
		3:leaf=-0.00194968097
		4:leaf=0.00605212711
	2:[f15<2.17269993] yes=5,no=6,missing=5
		5:[f13<2.35255003] yes=7,no=8,missing=7
			7:[f8<790015.375] yes=11,no=12,missing=11
				11:leaf=-0.00983848888
				12:leaf=0.00412355876
			8:[f0<38.0512505] yes=13,no=14,missing=13
				13:leaf=-0.00087464368
				14:leaf=-0.0171517264
		6:[f7<181462.062] yes=9,no=10,missing=9
			9:leaf=0.00750478497
			10:[f8<1909366.88] yes=15,no=16,missing=15
				15:leaf=-0.0113539742
				16:leaf=0.00113073958
booster[42]:
0:[f1<39.9233017] yes=1,no=2,missing=1
	1:[f8<797168.5] yes=3,no=4,missing=3
		3:[f10<0.605000019] yes=7,no=8,missing=7
			7:leaf=0.00727896392
			8:[f5<-0.069600001] yes=15,no=16,missing=15
				15:leaf=0.000231733895
				16:leaf=-0.0131528974
		4:[f6<-1.27275002] yes=9,no=10,missing=9
			9:[f16<1.375] yes=17,no=18,missing=17
				17:leaf=-0.00607121922
				18:leaf=0.0027097452
			10:[f13<2.24910021] yes=19,no=20,missing=19
				19:leaf=0.00049826171
				20:leaf=0.0118623814
	2:[f16<0.335000008] yes=5,no=6,missing=5
		5:[f9<0.619650006] yes=11,no=12,missing=11
			11:leaf=0.00995969679
			12:[f6<-2.15199995] yes=21,no=22,missing=21
				21:leaf=0.0038443096
				22:leaf=-0.00812553987
		6:[f8<1890372.62] yes=13,no=14,missing=13
			13:[f5<-1.28635001] yes=23,no=24,missing=23
				23:leaf=-0.00107110839
				24:leaf=-0.0145174656
			14:[f8<2388980] yes=25,no=26,missing=25
				25:leaf=0.00306186336
				26:leaf=-0.00337769534
booster[43]:
0:[f16<0.335000008] yes=1,no=2,missing=1
	1:[f7<185706.391] yes=3,no=4,missing=3
		3:[f13<3.87739992] yes=7,no=8,missing=7
			7:leaf=0.0095613962
			8:leaf=-7.16599607e-05
		4:[f7<304139.875] yes=9,no=10,missing=9
			9:[f10<0.665000021] yes=15,no=16,missing=15
				15:leaf=0.00016518154
				16:leaf=-0.0128552336
			10:[f7<501083.75] yes=17,no=18,missing=17
				17:leaf=0.00537269795
				18:leaf=-0.00703045819
	2:[f3<37.3962021] yes=5,no=6,missing=5
		5:[f10<0.600000024] yes=11,no=12,missing=11
			11:leaf=0.00683738012
			12:[f1<37.5312004] yes=19,no=20,missing=19
				19:leaf=-0.0068368949
				20:leaf=0.00505358307
		6:[f15<1.15050006] yes=13,no=14,missing=13
			13:[f2<38.9361] yes=21,no=22,missing=21
				21:leaf=-0.00549847167
				22:leaf=0.00372756342
			14:leaf=-0.0156242503
booster[44]:
0:[f8<2000584.62] yes=1,no=2,missing=1
	1:[f1<39.9233017] yes=3,no=4,missing=3
		3:[f13<2.43009996] yes=7,no=8,missing=7
			7:[f9<0.262400001] yes=15,no=16,missing=15
				15:leaf=0.00597468764
				16:leaf=-0.00974929053
			8:[f10<0.805000007] yes=17,no=18,missing=17
				17:leaf=-0.000899387931
				18:leaf=0.00713190809
		4:[f20<345163.938] yes=9,no=10,missing=9
			9:[f13<3.85374999] yes=19,no=20,missing=19
				19:leaf=0.00505904434
				20:leaf=-0.00855915528
			10:leaf=-0.0155297508
	2:[f8<2513301] yes=5,no=6,missing=5
		5:[f21<38111560] yes=11,no=12,missing=11
			11:leaf=-0.00134735333
			12:leaf=0.0126164658
		6:[f9<1.85944998] yes=13,no=14,missing=13
			13:leaf=-0.0104368748
			14:leaf=0.000697428535
booster[45]:
0:[f8<417330.938] yes=1,no=2,missing=1
	1:leaf=0.0040073446
	2:[f3<35.550148] yes=3,no=4,missing=3
		3:leaf=0.002191921
		4:[f16<0.275000006] yes=5,no=6,missing=5
			5:[f4<59.2947998] yes=7,no=8,missing=7
				7:leaf=0.00540735153
				8:leaf=-0.00914575905
			6:[f17<1.28499997] yes=9,no=10,missing=9
				9:leaf=-0.0144263804
				10:leaf=-0.0047747544
booster[46]:
0:[f22<17092268] yes=1,no=2,missing=1
	1:[f1<34.9508514] yes=3,no=4,missing=3
		3:leaf=-0.000988051179
		4:leaf=0.00665846327
	2:[f8<2000584.62] yes=5,no=6,missing=5
		5:[f5<-1.52340007] yes=7,no=8,missing=7
			7:leaf=0.000818130677
			8:[f17<1.36500001] yes=11,no=12,missing=11
				11:leaf=-0.0134189604
				12:leaf=-0.00367434323
		6:[f9<1.39174998] yes=9,no=10,missing=9
			9:leaf=0.00845318288
			10:[f5<0.332599998] yes=13,no=14,missing=13
				13:leaf=0.00222808099
				14:leaf=-0.00942082424
booster[47]:
0:[f8<1963778] yes=1,no=2,missing=1
	1:[f1<39.9580002] yes=3,no=4,missing=3
		3:[f1<39.5956001] yes=7,no=8,missing=7
			7:[f10<0.605000019] yes=15,no=16,missing=15
				15:leaf=0.00548848743
				16:leaf=-0.00924457144
			8:[f5<-0.0549499989] yes=17,no=18,missing=17
				17:leaf=0.00781862717
				18:leaf=-0.000123285849
		4:[f10<1.005] yes=9,no=10,missing=9
			9:[f10<0.534999967] yes=19,no=20,missing=19
				19:leaf=-0.00135873829
				20:leaf=-0.0145383868
			10:[f10<1.25999999] yes=21,no=22,missing=21
				21:leaf=0.00280056312
				22:leaf=-0.0107437307
	2:[f8<2522596] yes=5,no=6,missing=5
		5:[f4<48.7321472] yes=11,no=12,missing=11
			11:leaf=-0.00205114065
			12:leaf=0.00874035805
		6:[f3<49.9664497] yes=13,no=14,missing=13
			13:leaf=0.000797433488
			14:leaf=-0.00891208742
booster[48]:
0:[f21<28268544] yes=1,no=2,missing=1
	1:[f10<0.995000005] yes=3,no=4,missing=3
		3:leaf=-0.000931161107
		4:leaf=0.00570094725
	2:[f9<0.25150001] yes=5,no=6,missing=5
		5:leaf=0.00190860056
		6:[f9<0.425650001] yes=7,no=8,missing=7
			7:[f1<47.2480011] yes=9,no=10,missing=9
				9:leaf=-0.0167940799
				10:leaf=-0.00177703553
			8:[f9<0.447449982] yes=11,no=12,missing=11
				11:leaf=0.00621267362
				12:leaf=-0.0076359883
booster[49]:
0:[f10<0.595000029] yes=1,no=2,missing=1
	1:[f22<19440718] yes=3,no=4,missing=3
		3:[f5<0.00970000029] yes=7,no=8,missing=7
			7:leaf=0.000488571706
			8:leaf=0.011124026
		4:[f15<2.67635012] yes=9,no=10,missing=9
			9:leaf=-0.00879615732
			10:leaf=0.00234891148
	2:[f9<0.263249993] yes=5,no=6,missing=5
		5:leaf=0.00308224792
		6:[f20<345163.938] yes=11,no=12,missing=11
			11:[f15<2.72989988] yes=13,no=14,missing=13
				13:leaf=-0.00717518339
				14:leaf=0.00443409756
			12:[f3<35.4362488] yes=15,no=16,missing=15
				15:leaf=-0.00107864907
				16:leaf=-0.0131941205
booster[50]:
0:[f1<36.3029022] yes=1,no=2,missing=1
	1:[f4<35.3322525] yes=3,no=4,missing=3
		3:[f0<33.7374496] yes=7,no=8,missing=7
			7:leaf=0.0018215623
			8:leaf=-0.00500508631
		4:leaf=0.00824181642
	2:[f8<2012219.75] yes=5,no=6,missing=5
		5:[f6<-2.24720001] yes=9,no=10,missing=9
			9:[f16<0.324999988] yes=13,no=14,missing=13
				13:leaf=0.00720181037
				14:leaf=-0.00602279836
			10:[f2<43.8416519] yes=15,no=16,missing=15
				15:leaf=-0.00621739728
				16:leaf=-0.0156487618
		6:[f7<501083.75] yes=11,no=12,missing=11
			11:[f3<50.7549515] yes=17,no=18,missing=17
				17:leaf=-5.16890141e-05
				18:leaf=0.00682924083
			12:[f3<49.9664497] yes=19,no=20,missing=19
				19:leaf=0.000519521069
				20:leaf=-0.00737736607
booster[51]:
0:[f12<14.87745] yes=1,no=2,missing=1
	1:[f16<1.45500004] yes=3,no=4,missing=3
		3:[f0<35.8125992] yes=7,no=8,missing=7
			7:[f8<706340.125] yes=13,no=14,missing=13
				13:leaf=0.00115006859
				14:leaf=-0.00730235083
			8:[f15<1.07064998] yes=15,no=16,missing=15
				15:leaf=-0.00449732551
				16:leaf=0.0070137023
		4:leaf=0.00659999205
	2:[f16<0.275000006] yes=5,no=6,missing=5
		5:[f15<3.47350001] yes=9,no=10,missing=9
			9:leaf=0.00679498492
			10:[f5<0.772799969] yes=17,no=18,missing=17
				17:leaf=-0.00893477909
				18:leaf=0.00318052038
		6:[f3<44.28125] yes=11,no=12,missing=11
			11:[f3<42.8050995] yes=19,no=20,missing=19
				19:leaf=-0.00977430213
				20:leaf=0.0094477227
			12:[f10<1.14499998] yes=21,no=22,missing=21
				21:leaf=-0.0156391729
				22:leaf=-0.00226507662
booster[52]:
0:[f15<1.3424499] yes=1,no=2,missing=1
	1:[f1<42.4950027] yes=3,no=4,missing=3
		3:[f8<837160.688] yes=7,no=8,missing=7
			7:[f12<15.4612503] yes=13,no=14,missing=13
				13:leaf=-0.00125834707
				14:leaf=-0.015265651
			8:[f8<1068742.5] yes=15,no=16,missing=15
				15:leaf=0.0112705035
				16:leaf=-0.00657729665
		4:leaf=0.0117252218
	2:[f15<1.98025] yes=5,no=6,missing=5
		5:[f22<18887456] yes=9,no=10,missing=9
			9:leaf=0.000749090977
			10:leaf=-0.0172320176
		6:[f10<0.819999993] yes=11,no=12,missing=11
			11:[f7<190559.562] yes=17,no=18,missing=17
				17:leaf=0.00968446489
				18:leaf=-0.0025783868
			12:[f8<1909366.88] yes=19,no=20,missing=19
				19:leaf=-0.0107087288
				20:leaf=-0.00127357419
booster[53]:
0:[f20<345163.938] yes=1,no=2,missing=1
	1:[f13<3.87235022] yes=3,no=4,missing=3
		3:[f7<262690.219] yes=7,no=8,missing=7
			7:leaf=0.0105490638
			8:leaf=-0.0025828972
		4:[f10<1.31500006] yes=9,no=10,missing=9
			9:[f5<-0.416999996] yes=13,no=14,missing=13
				13:leaf=0.00187655038
				14:leaf=-0.0124475705
			10:[f10<1.76499999] yes=15,no=16,missing=15
				15:leaf=0.00760477502
				16:leaf=-0.00120181602
	2:[f9<0.262400001] yes=5,no=6,missing=5
		5:leaf=0.00396882556
		6:[f9<0.41565001] yes=11,no=12,missing=11
			11:[f10<0.584999979] yes=17,no=18,missing=17
				17:leaf=-4.11371075e-05
				18:leaf=-0.0193781722
			12:[f7<181445.406] yes=19,no=20,missing=19
				19:leaf=0.00820013229
				20:leaf=-0.0106014609
booster[54]:
0:[f8<2000584.62] yes=1,no=2,missing=1
	1:[f6<-2.81239986] yes=3,no=4,missing=3
		3:[f10<1.2650001] yes=7,no=8,missing=7
			7:leaf=0.0075372397
			8:leaf=-0.00512313051
		4:[f8<417330.938] yes=9,no=10,missing=9
			9:[f12<15.4998493] yes=15,no=16,missing=15
				15:leaf=0.00829168689
				16:leaf=-0.00638965238
			10:[f9<0.409850001] yes=17,no=18,missing=17
				17:leaf=-0.0161842927
				18:leaf=-0.0074671465
	2:[f8<2522596] yes=5,no=6,missing=5
		5:[f4<49.5369492] yes=11,no=12,missing=11
			11:leaf=3.54477015e-05
			12:leaf=0.00919810496
		6:[f6<1.26395011] yes=13,no=14,missing=13
			13:leaf=0.000978797325
			14:leaf=-0.00923540629
booster[55]:
0:[f1<36.3029022] yes=1,no=2,missing=1
	1:[f4<35.3322525] yes=3,no=4,missing=3
		3:[f13<2.21475005] yes=7,no=8,missing=7
			7:leaf=0.00229507871
			8:leaf=-0.00424929848
		4:leaf=0.00724931201
	2:[f8<2000584.62] yes=5,no=6,missing=5
		5:[f5<-1.10759997] yes=9,no=10,missing=9
			9:[f10<1.27499998] yes=13,no=14,missing=13
				13:leaf=0.0071381242
				14:leaf=-0.00877369568
			10:[f0<44.4575005] yes=15,no=16,missing=15
				15:leaf=-0.0053732018
				16:leaf=-0.0162364598
		6:[f8<2522596] yes=11,no=12,missing=11
			11:[f9<1.39174998] yes=17,no=18,missing=17
				17:leaf=0.0106784431
				18:leaf=-0.00113196101
			12:leaf=-0.0084885424
booster[56]:
0:[f9<0.416400015] yes=1,no=2,missing=1
	1:[f21<31090648] yes=3,no=4,missing=3
		3:[f7<130667.531] yes=7,no=8,missing=7
			7:leaf=0.00588702178
			8:leaf=-0.00802694913
		4:[f1<47.2480011] yes=9,no=10,missing=9
			9:leaf=-0.0156086115
			10:leaf=-0.000225401163
	2:[f7<181445.406] yes=5,no=6,missing=5
		5:[f9<0.464349985] yes=11,no=12,missing=11
			11:[f7<159503.562] yes=15,no=16,missing=15
				15:leaf=0.00545262871
				16:leaf=-0.00598919904
			12:[f8<849378.25] yes=17,no=18,missing=17
				17:leaf=0.0137983831
				18:leaf=0.000465385208
		6:[f12<16.5494003] yes=13,no=14,missing=13
			13:[f12<15.7638998] yes=19,no=20,missing=19
				19:leaf=-0.00786815491
				20:leaf=0.0107664717
			14:[f8<2001306.88] yes=21,no=22,missing=21
				21:leaf=-0.0121970233
				22:leaf=0.000143504119
booster[57]:
0:[f22<17192784] yes=1,no=2,missing=1
	1:[f3<34.3813019] yes=3,no=4,missing=3
		3:leaf=-0.00201119925
		4:leaf=0.00553802773
	2:[f20<345163.938] yes=5,no=6,missing=5
		5:[f14<2.35449982] yes=7,no=8,missing=7
			7:leaf=0.00810475275
			8:[f6<-2.15199995] yes=11,no=12,missing=11
				11:leaf=0.00671995664
				12:leaf=-0.00742971618
		6:[f8<916689.188] yes=9,no=10,missing=9
			9:[f6<1.94819999] yes=13,no=14,missing=13
				13:leaf=-0.0145003647
				14:leaf=-0.000126212195
			10:[f8<961436.625] yes=15,no=16,missing=15
				15:leaf=0.0103437621
				16:leaf=-0.00783518609
booster[58]:
0:[f13<3.3583498] yes=1,no=2,missing=1
	1:[f15<1.34185004] yes=3,no=4,missing=3
		3:[f11<17.4209003] yes=7,no=8,missing=7
			7:[f13<2.14864993] yes=13,no=14,missing=13
				13:leaf=0.00191803637
				14:leaf=-0.00913793501
			8:[f0<39.858902] yes=15,no=16,missing=15
				15:leaf=-0.00133890961
				16:leaf=0.0129167503
		4:leaf=-0.0126688732
	2:[f13<3.88150001] yes=5,no=6,missing=5
		5:[f0<49.9380989] yes=9,no=10,missing=9
			9:[f9<0.671000004] yes=17,no=18,missing=17
				17:leaf=0.013063143
				18:leaf=0.000239011293
			10:[f2<51.6793518] yes=19,no=20,missing=19
				19:leaf=-0.007899235
				20:leaf=0.00418150751
		6:[f6<-2.16750002] yes=11,no=12,missing=11
			11:leaf=0.00448495988
			12:[f0<55.9834976] yes=21,no=22,missing=21
				21:leaf=-0.0104779406
				22:leaf=0.00223619584
booster[59]:
0:[f20<345163.938] yes=1,no=2,missing=1
	1:[f9<0.664099991] yes=3,no=4,missing=3
		3:[f13<3.87739992] yes=7,no=8,missing=7
			7:leaf=0.00982561707
			8:leaf=-0.000322352949
		4:[f10<1.05499995] yes=9,no=10,missing=9
			9:[f17<0.324999988] yes=15,no=16,missing=15
				15:leaf=-0.0118812118
				16:leaf=0.00143315678
			10:[f10<1.54499996] yes=17,no=18,missing=17
				17:leaf=0.00764064444
				18:leaf=-0.00481221965
	2:[f16<1.20500004] yes=5,no=6,missing=5
		5:[f7<336651.688] yes=11,no=12,missing=11
			11:[f10<0.595000029] yes=19,no=20,missing=19
				19:leaf=-0.00102220278
				20:leaf=-0.0165041275
			12:[f6<-0.375450015] yes=21,no=22,missing=21
				21:leaf=-0.00805420801
				22:leaf=0.00397315016
		6:[f6<-0.194649994] yes=13,no=14,missing=13
			13:[f10<1.27499998] yes=23,no=24,missing=23
				23:leaf=0.00681604166
				24:leaf=-0.00579677615
			14:[f13<2.10685015] yes=25,no=26,missing=25
				25:leaf=0.00222834176
				26:leaf=-0.00990994927
booster[60]:
0:[f21<28268544] yes=1,no=2,missing=1
	1:[f3<34.3813019] yes=3,no=4,missing=3
		3:leaf=-0.00296915486
		4:leaf=0.00747719361
	2:[f13<3.3583498] yes=5,no=6,missing=5
		5:[f16<1.31500006] yes=7,no=8,missing=7
			7:[f15<1.17825007] yes=11,no=12,missing=11
				11:leaf=0.00212220778
				12:leaf=-0.0132124918
			8:[f12<15.9195995] yes=13,no=14,missing=13
				13:leaf=-0.00613800343
				14:leaf=0.00402063224
		6:[f3<49.1498489] yes=9,no=10,missing=9
			9:[f22<23161436] yes=15,no=16,missing=15
				15:leaf=-0.00308192056
				16:leaf=0.0106871948
			10:[f2<51.7233963] yes=17,no=18,missing=17
				17:leaf=-0.0126194013
				18:leaf=-0.00115215755
booster[61]:
0:[f13<2.10575008] yes=1,no=2,missing=1
	1:[f10<0.879999995] yes=3,no=4,missing=3
		3:leaf=-0.00114679476
		4:leaf=0.00544947898
	2:[f8<2000584.62] yes=5,no=6,missing=5
		5:[f1<36.3029022] yes=7,no=8,missing=7
			7:[f4<35.2579498] yes=11,no=12,missing=11
				11:leaf=-0.00408593426
				12:leaf=0.00468209572
			8:[f15<1.15050006] yes=13,no=14,missing=13
				13:leaf=3.71981514e-05
				14:leaf=-0.0113372402
		6:[f8<2226148.5] yes=9,no=10,missing=9
			9:leaf=0.00845905859
			10:[f10<1.54499996] yes=15,no=16,missing=15
				15:leaf=0.000518757966
				16:leaf=-0.00905408338
booster[62]:
0:[f8<722996.062] yes=1,no=2,missing=1
	1:[f17<1.28499997] yes=3,no=4,missing=3
		3:[f8<418035] yes=7,no=8,missing=7
			7:leaf=-0.000985122519
			8:leaf=-0.0151621345
		4:[f10<0.595000029] yes=9,no=10,missing=9
			9:leaf=0.0103226164
			10:[f15<1.19725001] yes=15,no=16,missing=15
				15:leaf=0.00121226686
				16:leaf=-0.00797315594
	2:[f7<185353.594] yes=5,no=6,missing=5
		5:[f3<48.260498] yes=11,no=12,missing=11
			11:[f10<0.824999988] yes=17,no=18,missing=17
				17:leaf=0.0138963414
				18:leaf=-0.000195583125
			12:[f15<2.53670001] yes=19,no=20,missing=19
				19:leaf=-0.0058565354
				20:leaf=0.00369706447
		6:[f11<18.3476486] yes=13,no=14,missing=13
			13:[f8<915045] yes=21,no=22,missing=21
				21:leaf=-0.00716451183
				22:leaf=0.00750558404
			14:[f8<1691725] yes=23,no=24,missing=23
				23:leaf=-0.0123347975
				24:leaf=0.000397675991
booster[63]:
0:[f9<0.407249987] yes=1,no=2,missing=1
	1:[f17<1.30499995] yes=3,no=4,missing=3
		3:leaf=-0.0142579079
		4:[f7<129932.914] yes=7,no=8,missing=7
			7:leaf=0.00592681905
			8:leaf=-0.000466958154
	2:[f8<1137936.25] yes=5,no=6,missing=5
		5:[f0<42.02425] yes=9,no=10,missing=9
			9:[f16<1.30499995] yes=13,no=14,missing=13
				13:leaf=-0.00687885797
				14:leaf=0.00505661126
			10:[f2<44.0484467] yes=15,no=16,missing=15
				15:leaf=0.0166692175
				16:leaf=-0.000941330276
		6:[f2<37.8828506] yes=11,no=12,missing=11
			11:leaf=0.00136393728
			12:[f21<39528420] yes=17,no=18,missing=17
				17:leaf=-0.010295595
				18:leaf=-0.00115023262
booster[64]:
0:[f8<1137936.25] yes=1,no=2,missing=1
	1:[f11<23.8834991] yes=3,no=4,missing=3
		3:[f5<-0.227050006] yes=7,no=8,missing=7
			7:[f11<16.0680504] yes=15,no=16,missing=15
				15:leaf=-0.00505151972
				16:leaf=0.00568417599
			8:[f8<1091259.88] yes=17,no=18,missing=17
				17:leaf=-0.0103676105
				18:leaf=0.00569233811
		4:[f3<49.1547012] yes=9,no=10,missing=9
			9:[f17<0.314999998] yes=19,no=20,missing=19
				19:leaf=0.00143983366
				20:leaf=0.0142248292
			10:leaf=-0.0028454999
	2:[f8<1967690] yes=5,no=6,missing=5
		5:[f5<-1.08124995] yes=11,no=12,missing=11
			11:[f14<2.39415002] yes=21,no=22,missing=21
				21:leaf=-0.00582684344
				22:leaf=0.00303952838
			12:leaf=-0.0153279155
		6:[f8<2255322.5] yes=13,no=14,missing=13
			13:leaf=0.00815226324
			14:[f5<0.645650029] yes=23,no=24,missing=23
				23:leaf=-0.00124969007
				24:leaf=-0.00888743438
booster[65]:
0:[f22<18787688] yes=1,no=2,missing=1
	1:[f12<15.7625504] yes=3,no=4,missing=3
		3:[f15<1.20815003] yes=7,no=8,missing=7
			7:[f22<17178424] yes=13,no=14,missing=13
				13:leaf=0.00623811735
				14:leaf=-0.00227807439
			8:[f11<16.8031006] yes=15,no=16,missing=15
				15:leaf=-0.00989576429
				16:leaf=-0.00107159396
		4:leaf=0.00914734323
	2:[f15<1.98640001] yes=5,no=6,missing=5
		5:[f15<1.15050006] yes=9,no=10,missing=9
			9:leaf=0.00195815554
			10:[f5<-0.751699984] yes=17,no=18,missing=17
				17:leaf=-0.000453097833
				18:leaf=-0.012637496
		6:[f9<0.664099991] yes=11,no=12,missing=11
			11:[f12<22.0700989] yes=19,no=20,missing=19
				19:leaf=0.00826031994
				20:leaf=-0.00264933216
			12:[f15<2.45749998] yes=21,no=22,missing=21
				21:leaf=0.00258928956
				22:leaf=-0.00927029178
booster[66]:
0:[f10<0.595000029] yes=1,no=2,missing=1
	1:[f5<0.00970000029] yes=3,no=4,missing=3
		3:[f17<1.35500002] yes=7,no=8,missing=7
			7:[f15<2.26539993] yes=15,no=16,missing=15
				15:leaf=-0.00759492535
				16:leaf=-0.000243570961
			8:leaf=0.00262394384
		4:[f22<20074202] yes=9,no=10,missing=9
			9:leaf=0.0109832054
			10:leaf=-0.000707925879
	2:[f5<-0.0149499997] yes=5,no=6,missing=5
		5:[f5<-0.400399983] yes=11,no=12,missing=11
			11:[f1<48.96035] yes=17,no=18,missing=17
				17:leaf=-0.00887022261
				18:leaf=0.00114205026
			12:[f22<19777444] yes=19,no=20,missing=19
				19:leaf=0.0112177888
				20:leaf=-0.00283505255
		6:[f15<2.05410004] yes=13,no=14,missing=13
			13:[f0<38.0340004] yes=21,no=22,missing=21
				21:leaf=-0.00181298913
				22:leaf=-0.0138893649
			14:[f6<0.903100014] yes=23,no=24,missing=23
				23:leaf=0.00632271264
				24:leaf=-0.00756199146
booster[67]:
0:[f14<1.42015004] yes=1,no=2,missing=1
	1:[f9<0.525750041] yes=3,no=4,missing=3
		3:[f14<1.34745002] yes=7,no=8,missing=7
			7:[f9<0.263249993] yes=13,no=14,missing=13
				13:leaf=0.000934862823
				14:leaf=-0.0131100789
			8:leaf=0.00318635046
		4:[f9<0.717599988] yes=9,no=10,missing=9
			9:[f14<1.2421999] yes=15,no=16,missing=15
				15:leaf=-0.000947827939
				16:leaf=0.0168461017
			10:[f10<1.25] yes=17,no=18,missing=17
				17:leaf=-0.00637515727
				18:leaf=-4.57058522e-05
	2:[f16<1.34500003] yes=5,no=6,missing=5
		5:[f15<1.97819996] yes=11,no=12,missing=11
			11:[f4<48.9211998] yes=19,no=20,missing=19
				19:leaf=-0.0130379451
				20:leaf=0.0015525081
			12:[f9<0.589399993] yes=21,no=22,missing=21
				21:leaf=0.00749145541
				22:leaf=-0.00670439238
		6:leaf=0.0031418174
booster[68]:
0:[f9<0.41565001] yes=1,no=2,missing=1
	1:[f4<39.7776489] yes=3,no=4,missing=3
		3:[f10<0.63499999] yes=7,no=8,missing=7
			7:leaf=0.00613631867
			8:[f4<38.7277527] yes=15,no=16,missing=15
				15:leaf=-0.0083922334
				16:leaf=0.000773311534
		4:[f1<47.2480011] yes=9,no=10,missing=9
			9:leaf=-0.0155141549
			10:leaf=-0.000916348479
	2:[f8<1029081.69] yes=5,no=6,missing=5
		5:[f4<40.6562996] yes=11,no=12,missing=11
			11:[f12<14.8952007] yes=17,no=18,missing=17
				17:leaf=0.00436706888
				18:leaf=-0.00681677414
			12:[f21<37821148] yes=19,no=20,missing=19
				19:leaf=0.0112216128
				20:leaf=-0.003576288
		6:[f22<18661292] yes=13,no=14,missing=13
			13:[f4<36.3623505] yes=21,no=22,missing=21
				21:leaf=-0.00497613242
				22:leaf=0.00753024966
			14:[f8<1903565] yes=23,no=24,missing=23
				23:leaf=-0.0104983263
				24:leaf=-0.00220014295
booster[69]:
0:[f13<2.15140009] yes=1,no=2,missing=1
	1:[f0<38.7414017] yes=3,no=4,missing=3
		3:[f5<0.0349499993] yes=7,no=8,missing=7
			7:leaf=-0.00588499475
			8:leaf=0.00243924535
		4:leaf=0.00701938896
	2:[f20<345163.938] yes=5,no=6,missing=5
		5:[f17<0.324999988] yes=9,no=10,missing=9
			9:[f5<-0.363649994] yes=13,no=14,missing=13
				13:leaf=0.00450410973
				14:leaf=-0.0113126216
			10:[f5<-0.257699996] yes=15,no=16,missing=15
				15:leaf=-0.00335019757
				16:leaf=0.0119482251
		6:[f13<2.54285002] yes=11,no=12,missing=11
			11:[f4<41.9131012] yes=17,no=18,missing=17
				17:leaf=-0.00748327514
				18:leaf=0.00872091576
			12:[f5<0.885900021] yes=19,no=20,missing=19
				19:leaf=-0.0153979873
				20:leaf=0.00117160787
booster[70]:
0:[f0<44.4477997] yes=1,no=2,missing=1
	1:[f4<43.0638504] yes=3,no=4,missing=3
		3:[f8<838483.438] yes=7,no=8,missing=7
			7:[f10<0.595000029] yes=15,no=16,missing=15
				15:leaf=0.00382638234
				16:leaf=-0.0143389674
			8:[f12<16.5494003] yes=17,no=18,missing=17
				17:leaf=0.00729370816
				18:leaf=-0.00667859986
		4:[f8<698648.125] yes=9,no=10,missing=9
			9:leaf=-0.0017109029
			10:leaf=0.0144613683
	2:[f6<-2.24394989] yes=5,no=6,missing=5
		5:[f5<-1.61689997] yes=11,no=12,missing=11
			11:leaf=-0.00565352431
			12:leaf=0.00548954168
		6:[f8<2000584.62] yes=13,no=14,missing=13
			13:[f21<35446856] yes=19,no=20,missing=19
				19:leaf=0.000798550376
				20:leaf=-0.0124685913
			14:[f8<2147176] yes=21,no=22,missing=21
				21:leaf=0.00802650396
				22:leaf=-0.00731530413
booster[71]:
0:[f1<44.9715004] yes=1,no=2,missing=1
	1:[f3<42.8050995] yes=3,no=4,missing=3
		3:[f4<39.1230469] yes=7,no=8,missing=7
			7:[f0<35.7730026] yes=15,no=16,missing=15
				15:leaf=-0.00720419083
				16:leaf=0.00464813085
			8:[f4<41.9099007] yes=17,no=18,missing=17
				17:leaf=-0.0113396188
				18:leaf=2.48117958e-05
		4:[f21<34813172] yes=9,no=10,missing=9
			9:leaf=0.0161871035
			10:leaf=0.00120284152
	2:[f0<53.7759476] yes=5,no=6,missing=5
		5:[f7<375978.75] yes=11,no=12,missing=11
			11:[f17<0.904999971] yes=19,no=20,missing=19
				19:leaf=-0.0154689802
				20:leaf=-0.00231686141
			12:[f9<1.39174998] yes=21,no=22,missing=21
				21:leaf=0.00809320528
				22:leaf=-0.00482049817
		6:[f10<1.11000001] yes=13,no=14,missing=13
			13:[f0<59.3730011] yes=23,no=24,missing=23
				23:leaf=0.00661341054
				24:leaf=-0.00128552096
			14:leaf=-0.00561829796
booster[72]:
0:[f22<19490260] yes=1,no=2,missing=1
	1:[f5<-0.480399996] yes=3,no=4,missing=3
		3:[f5<-1.16595006] yes=7,no=8,missing=7
			7:leaf=0.000909809489
			8:leaf=-0.0105169192
		4:[f2<35.2876511] yes=9,no=10,missing=9
			9:[f12<14.0983] yes=13,no=14,missing=13
				13:leaf=0.0023377263
				14:leaf=-0.00787215959
			10:[f7<393790.25] yes=15,no=16,missing=15
				15:leaf=0.0120358737
				16:leaf=-0.00299491594
	2:[f15<1.18134999] yes=5,no=6,missing=5
		5:leaf=0.00439711614
		6:[f15<3.41034985] yes=11,no=12,missing=11
			11:[f5<-1.81634998] yes=17,no=18,missing=17
				17:leaf=0.00133564405
				18:leaf=-0.0113296947
			12:[f4<59.2947998] yes=19,no=20,missing=19
				19:leaf=0.00651134877
				20:leaf=-0.00599931134
booster[73]:
0:[f11<26.734951] yes=1,no=2,missing=1
	1:[f3<44.9608002] yes=3,no=4,missing=3
		3:[f1<42.4899979] yes=7,no=8,missing=7
			7:[f1<36.3029022] yes=15,no=16,missing=15
				15:leaf=-0.00036830458
				16:leaf=-0.0101647889
			8:[f0<44.8857002] yes=17,no=18,missing=17
				17:leaf=0.00981851202
				18:leaf=-0.00405610492
		4:[f6<-1.05069995] yes=9,no=10,missing=9
			9:leaf=-0.000618604303
			10:[f12<22.3481998] yes=19,no=20,missing=19
				19:leaf=-0.0162706953
				20:leaf=-0.0013800934
	2:[f3<49.1498489] yes=5,no=6,missing=5
		5:[f8<1141223] yes=11,no=12,missing=11
			11:leaf=0.0125324577
			12:[f9<1.14505005] yes=21,no=22,missing=21
				21:leaf=-0.00400200253
				22:leaf=0.00563394791
		6:[f17<0.795000017] yes=13,no=14,missing=13
			13:[f13<4.3376503] yes=23,no=24,missing=23
				23:leaf=-0.0100443801
				24:leaf=-6.58892968e-05
			14:[f12<20.1911507] yes=25,no=26,missing=25
				25:leaf=-0.00405158708
				26:leaf=0.00463157473
booster[74]:
0:[f3<48.4121475] yes=1,no=2,missing=1
	1:[f9<0.41565001] yes=3,no=4,missing=3
		3:[f1<36.2612495] yes=7,no=8,missing=7
			7:leaf=0.00232409942
			8:[f9<0.284399986] yes=15,no=16,missing=15
				15:leaf=0.0010895062
				16:leaf=-0.0142062968
		4:[f6<1.48475003] yes=9,no=10,missing=9
			9:[f10<1.43499994] yes=17,no=18,missing=17
				17:leaf=0.0073730587
				18:leaf=-0.00449073454
			10:[f16<1.33500004] yes=19,no=20,missing=19
				19:leaf=-0.0106360996
				20:leaf=-0.000236867112
	2:[f3<57.2258492] yes=5,no=6,missing=5
		5:[f9<0.529600024] yes=11,no=12,missing=11
			11:[f11<27.5168495] yes=21,no=22,missing=21
				21:leaf=-0.00587227801
				22:leaf=0.00376289315
			12:[f11<23.491951] yes=23,no=24,missing=23
				23:leaf=-0.00179766677
				24:leaf=-0.0170495547
		6:[f4<59.2947998] yes=13,no=14,missing=13
			13:leaf=0.00714540575
			14:leaf=-0.00758490292
booster[75]:
0:[f3<44.28125] yes=1,no=2,missing=1
	1:[f3<43.3993988] yes=3,no=4,missing=3
		3:[f0<37.6054497] yes=7,no=8,missing=7
			7:[f0<35.6845474] yes=13,no=14,missing=13
				13:leaf=-0.00571649987
				14:leaf=0.00640840782
			8:[f15<1.15050006] yes=15,no=16,missing=15
				15:leaf=-0.000370427704
				16:leaf=-0.0111812633
		4:[f0<44.3781509] yes=9,no=10,missing=9
			9:leaf=0.0139020402
			10:leaf=0.000768246071
	2:[f22<19248128] yes=5,no=6,missing=5
		5:leaf=0.00347893802
		6:[f15<2.44075012] yes=11,no=12,missing=11
			11:leaf=-0.0146078691
			12:[f9<0.507400036] yes=17,no=18,missing=17
				17:leaf=0.0049517299
				18:leaf=-0.00644155452
booster[76]:
0:[f22<19148032] yes=1,no=2,missing=1
	1:[f15<1.27104998] yes=3,no=4,missing=3
		3:[f7<130667.531] yes=7,no=8,missing=7
			7:leaf=0.00720035285
			8:[f5<-0.706499994] yes=15,no=16,missing=15
				15:leaf=0.00178623816
				16:leaf=-0.0125758527
		4:[f5<-0.49605] yes=9,no=10,missing=9
			9:leaf=-0.00493832584
			10:leaf=0.014114948
	2:[f9<0.409850001] yes=5,no=6,missing=5
		5:[f1<41.1303024] yes=11,no=12,missing=11
			11:leaf=-2.68176177e-06
			12:leaf=-0.0154719194
		6:[f15<1.34134996] yes=13,no=14,missing=13
			13:[f0<41.2799988] yes=17,no=18,missing=17
				17:leaf=-0.00372788869
				18:leaf=0.0124412449
			14:[f9<0.524800003] yes=19,no=20,missing=19
				19:leaf=0.00292441971
				20:leaf=-0.00947809964
booster[77]:
0:[f3<48.2115479] yes=1,no=2,missing=1
	1:[f12<19.5420494] yes=3,no=4,missing=3
		3:[f2<38.8238525] yes=7,no=8,missing=7
			7:[f21<30718590] yes=13,no=14,missing=13
				13:leaf=-0.00432613306
				14:leaf=0.00974219292
			8:[f17<1.29499996] yes=15,no=16,missing=15
				15:leaf=-0.0111105321
				16:leaf=-0.00180543121
		4:[f1<47.2096481] yes=9,no=10,missing=9
			9:[f0<44.3781509] yes=17,no=18,missing=17
				17:leaf=0.00751322741
				18:leaf=-0.00736436341
			10:leaf=0.0091342777
	2:[f13<4.35319996] yes=5,no=6,missing=5
		5:[f7<464306.406] yes=11,no=12,missing=11
			11:[f6<-2.23979998] yes=19,no=20,missing=19
				19:leaf=-0.00117226585
				20:leaf=-0.0151498467
			12:leaf=-0.00118546409
		6:leaf=7.74686705e-05
booster[78]:
0:[f3<44.28125] yes=1,no=2,missing=1
	1:[f1<43.9895477] yes=3,no=4,missing=3
		3:[f1<39.9580002] yes=7,no=8,missing=7
			7:[f3<38.0580978] yes=13,no=14,missing=13
				13:leaf=-0.00276748021
				14:leaf=0.00836348068
			8:[f17<1.30499995] yes=15,no=16,missing=15
				15:leaf=-0.00998912193
				16:leaf=-0.00021732341
		4:leaf=0.0102117267
	2:[f6<-2.24394989] yes=5,no=6,missing=5
		5:[f5<-1.61689997] yes=9,no=10,missing=9
			9:leaf=-0.00444298284
			10:leaf=0.00578939728
		6:[f8<2000584.62] yes=11,no=12,missing=11
			11:[f7<188853.5] yes=17,no=18,missing=17
				17:leaf=-0.004878507
				18:leaf=-0.0163857918
			12:[f9<1.39174998] yes=19,no=20,missing=19
				19:leaf=0.00661341986
				20:leaf=-0.00670134602
booster[79]:
0:[f9<0.409850001] yes=1,no=2,missing=1
	1:[f9<0.284399986] yes=3,no=4,missing=3
		3:[f6<-0.256349981] yes=7,no=8,missing=7
			7:leaf=0.00570079824
			8:leaf=-0.0041028969
		4:[f0<36.8393478] yes=9,no=10,missing=9
			9:leaf=0.00127036439
			10:leaf=-0.0150044113
	2:[f7<178338.859] yes=5,no=6,missing=5
		5:[f3<48.3796501] yes=11,no=12,missing=11
			11:[f14<1.44000006] yes=15,no=16,missing=15
				15:leaf=0.000199527349
				16:leaf=0.0144778891
			12:leaf=-0.00464808708
		6:[f2<51.7065506] yes=13,no=14,missing=13
			13:[f13<2.10575008] yes=17,no=18,missing=17
				17:leaf=0.0040305485
				18:leaf=-0.00676122447
			14:[f4<59.3241501] yes=19,no=20,missing=19
				19:leaf=0.00830983277
				20:leaf=-0.00625798712
booster[80]:
0:[f4<38.5167503] yes=1,no=2,missing=1
	1:[f4<35.8472977] yes=3,no=4,missing=3
		3:[f4<33.9058533] yes=7,no=8,missing=7
			7:leaf=0.000509961334
			8:[f4<35.365799] yes=13,no=14,missing=13
				13:leaf=-0.00831006002
				14:leaf=-0.000501003
		4:[f5<-0.440750003] yes=9,no=10,missing=9
			9:leaf=-0.00198177691
			10:[f15<1.24189997] yes=15,no=16,missing=15
				15:leaf=0.000260361092
				16:leaf=0.0103689739
	2:[f11<15.8160496] yes=5,no=6,missing=5
		5:leaf=0.00144606025
		6:[f5<1.36240005] yes=11,no=12,missing=11
			11:[f17<1.41499996] yes=17,no=18,missing=17
				17:leaf=-0.0106203696
				18:leaf=0.00038889327
			12:[f6<3.64045] yes=19,no=20,missing=19
				19:leaf=0.0065115029
				20:leaf=-0.00653811032
booster[81]:
0:[f15<2.14205003] yes=1,no=2,missing=1
	1:[f21<28268544] yes=3,no=4,missing=3
		3:[f1<34.3961487] yes=7,no=8,missing=7
			7:leaf=-0.00154032919
			8:leaf=0.00561836269
		4:[f7<439188.25] yes=9,no=10,missing=9
			9:[f22<20655750] yes=15,no=16,missing=15
				15:leaf=-0.0112532154
				16:leaf=-0.00381543976
			10:leaf=0.00165175798
	2:[f4<50.0163994] yes=5,no=6,missing=5
		5:[f0<47.5186005] yes=11,no=12,missing=11
			11:[f3<44.1551514] yes=17,no=18,missing=17
				17:leaf=0.00372548471
				18:leaf=-0.00537892757
			12:leaf=0.0120141944
		6:[f1<52.8776474] yes=13,no=14,missing=13
			13:leaf=-0.00704789022
			14:[f15<3.68984985] yes=19,no=20,missing=19
				19:leaf=0.00537371915
				20:leaf=-0.00670585129
booster[82]:
0:[f10<0.704999983] yes=1,no=2,missing=1
	1:[f6<-0.129649997] yes=3,no=4,missing=3
		3:[f16<0.585000038] yes=7,no=8,missing=7
			7:leaf=0.00358492951
			8:[f12<15.8727999] yes=15,no=16,missing=15
				15:leaf=0.00178012333
				16:leaf=-0.00918870326
		4:[f1<48.3778496] yes=9,no=10,missing=9
			9:[f16<1.13] yes=17,no=18,missing=17
				17:leaf=0.0143516855
				18:leaf=0.000837418891
			10:leaf=-1.37111156e-05
	2:[f8<901487.375] yes=5,no=6,missing=5
		5:[f13<2.13855004] yes=11,no=12,missing=11
			11:leaf=2.12885479e-05
			12:[f14<1.69554996] yes=19,no=20,missing=19
				19:leaf=-0.0157626737
				20:leaf=-0.0027039838
		6:[f8<1025507.06] yes=13,no=14,missing=13
			13:[f9<0.674649954] yes=21,no=22,missing=21
				21:leaf=0.0127611635
				22:leaf=-0.00250792224
			14:[f8<2000584.62] yes=23,no=24,missing=23
				23:leaf=-0.00817595329
				24:leaf=0.00297414162
booster[83]:
0:[f20<345163.938] yes=1,no=2,missing=1
	1:[f17<0.314999998] yes=3,no=4,missing=3
		3:[f5<-1.09575009] yes=7,no=8,missing=7
			7:leaf=0.00585740386
			8:[f5<0.99879998] yes=15,no=16,missing=15
				15:leaf=-0.00996412616
				16:leaf=0.000509496138
		4:[f11<35.9715004] yes=9,no=10,missing=9
			9:leaf=0.0125661837
			10:[f9<1.03154993] yes=17,no=18,missing=17
				17:leaf=0.00360103627
				18:leaf=-0.00599174527
	2:[f16<1.31500006] yes=5,no=6,missing=5
		5:[f6<-0.333999991] yes=11,no=12,missing=11
			11:[f14<1.40184999] yes=19,no=20,missing=19
				19:leaf=0.00179596711
				20:leaf=-0.0131930476
			12:[f6<0.464699984] yes=21,no=22,missing=21
				21:leaf=0.00367478281
				22:leaf=-0.0077304109
		6:[f11<16.1838989] yes=13,no=14,missing=13
			13:[f9<0.303200006] yes=23,no=24,missing=23
				23:leaf=0.00434480002
				24:leaf=-0.00674944138
			14:[f1<39.7053986] yes=25,no=26,missing=25
				25:leaf=0.0100595793
				26:leaf=-0.00107367197
booster[84]:
0:[f9<0.413699985] yes=1,no=2,missing=1
	1:[f8<416382.812] yes=3,no=4,missing=3
		3:leaf=0.000977124437
		4:[f10<0.625] yes=7,no=8,missing=7
			7:leaf=-0.000699785829
			8:leaf=-0.0154414056
	2:[f9<0.439449996] yes=5,no=6,missing=5
		5:leaf=0.00894877128
		6:[f6<1.62945008] yes=9,no=10,missing=9
			9:[f3<49.1498489] yes=11,no=12,missing=11
				11:leaf=0.00316682807
				12:leaf=-0.00916589051
			10:[f12<21.6870995] yes=13,no=14,missing=13
				13:leaf=-0.0133155063
				14:leaf=0.00290376507
booster[85]:
0:[f10<0.694999993] yes=1,no=2,missing=1
	1:[f5<-0.058600001] yes=3,no=4,missing=3
		3:[f2<38.5060501] yes=7,no=8,missing=7
			7:leaf=0.0041452772
			8:[f13<3.62759995] yes=15,no=16,missing=15
				15:leaf=-0.0085335914
				16:leaf=0.00122435146
		4:[f11<17.52565] yes=9,no=10,missing=9
			9:leaf=-0.00227120728
			10:[f6<0.466000021] yes=17,no=18,missing=17
				17:leaf=0.01254912
				18:leaf=0.000553248334
	2:[f5<-0.0198500007] yes=5,no=6,missing=5
		5:[f5<-0.400999993] yes=11,no=12,missing=11
			11:[f17<0.314999998] yes=19,no=20,missing=19
				19:leaf=0.00374167576
				20:leaf=-0.00749483658
			12:[f0<41.4286499] yes=21,no=22,missing=21
				21:leaf=0.0131605361
				22:leaf=-0.00408357056
		6:[f22<22917330] yes=13,no=14,missing=13
			13:[f10<1.46000004] yes=23,no=24,missing=23
				23:leaf=-0.0139253987
				24:leaf=0.000194742272
			14:[f4<48.0599518] yes=25,no=26,missing=25
				25:leaf=0.007346706
				26:leaf=-0.00417834846
booster[86]:
0:[f22<19148032] yes=1,no=2,missing=1
	1:[f0<35.6994019] yes=3,no=4,missing=3
		3:[f0<33.9553986] yes=7,no=8,missing=7
			7:leaf=0.000275301194
			8:leaf=-0.00945880916
		4:[f6<1.34840012] yes=9,no=10,missing=9
			9:[f5<-0.451950014] yes=15,no=16,missing=15
				15:leaf=-0.00150301564
				16:leaf=0.00930941477
			10:[f9<0.770699978] yes=17,no=18,missing=17
				17:leaf=-0.000124144077
				18:leaf=-0.00488291634
	2:[f6<-0.863749981] yes=5,no=6,missing=5
		5:[f9<0.679800034] yes=11,no=12,missing=11
			11:[f9<0.371600002] yes=19,no=20,missing=19
				19:leaf=-0.00461049844
				20:leaf=0.0109798936
			12:[f17<0.324999988] yes=21,no=22,missing=21
				21:leaf=0.00115014415
				22:leaf=-0.00910827797
		6:[f10<1.245] yes=13,no=14,missing=13
			13:[f0<56.6096001] yes=23,no=24,missing=23
				23:leaf=-0.0139693907
				24:leaf=0.00139414007
			14:[f9<1.39435005] yes=25,no=26,missing=25
				25:leaf=0.00536708487
				26:leaf=-0.00385148264
booster[87]:
0:[f1<39.9580002] yes=1,no=2,missing=1
	1:[f12<14.3189497] yes=3,no=4,missing=3
		3:[f5<0.0597499982] yes=7,no=8,missing=7
			7:leaf=-0.00737379119
			8:leaf=0.00239223824
		4:[f16<1.22500002] yes=9,no=10,missing=9
			9:[f15<1.27104998] yes=15,no=16,missing=15
				15:leaf=-0.00614415202
				16:leaf=0.00501620164
			10:[f10<1.19000006] yes=17,no=18,missing=17
				17:leaf=0.0118921753
				18:leaf=-0.00100617355
	2:[f14<2.30924988] yes=5,no=6,missing=5
		5:[f8<680957.625] yes=11,no=12,missing=11
			11:leaf=-0.013102402
			12:[f14<1.42079997] yes=19,no=20,missing=19
				19:leaf=0.00327645172
				20:leaf=-0.00793176331
		6:[f9<0.664099991] yes=13,no=14,missing=13
			13:[f5<0.170399994] yes=21,no=22,missing=21
				21:leaf=0.0107474122
				22:leaf=-0.000482377422
			14:[f6<-2.16750002] yes=23,no=24,missing=23
				23:leaf=0.00377846556
				24:leaf=-0.00523639331
booster[88]:
0:[f8<1029081.69] yes=1,no=2,missing=1
	1:[f8<914885.438] yes=3,no=4,missing=3
		3:[f10<0.595000029] yes=7,no=8,missing=7
			7:[f0<41.1311035] yes=15,no=16,missing=15
				15:leaf=0.0113722747
				16:leaf=-0.000233288767
			8:[f4<41.9131012] yes=17,no=18,missing=17
				17:leaf=-0.0112560038
				18:leaf=0.00254658214
		4:[f12<21.3534508] yes=9,no=10,missing=9
			9:leaf=0.0151318042
			10:leaf=0.000123259568
	2:[f10<1.31500006] yes=5,no=6,missing=5
		5:[f13<4.35319996] yes=11,no=12,missing=11
			11:[f7<387391.25] yes=19,no=20,missing=19
				19:leaf=-0.0128649352
				20:leaf=-2.56998792e-05
			12:leaf=0.000968427979
		6:[f10<1.54999995] yes=13,no=14,missing=13
			13:leaf=0.00861268584
			14:[f13<3.94860005] yes=21,no=22,missing=21
				21:leaf=-0.00830600318
				22:leaf=0.00326286419
booster[89]:
0:[f14<2.33249998] yes=1,no=2,missing=1
	1:[f17<1.28499997] yes=3,no=4,missing=3
		3:[f0<39.5896988] yes=7,no=8,missing=7
			7:[f0<38.7549973] yes=15,no=16,missing=15
				15:leaf=-0.00407490833
				16:leaf=0.00543674966
			8:[f5<0.577899992] yes=17,no=18,missing=17
				17:leaf=-0.012747203
				18:leaf=-0.000290332799
		4:[f12<15.9724007] yes=9,no=10,missing=9
			9:[f7<176013.156] yes=19,no=20,missing=19
				19:leaf=0.00495875673
				20:leaf=-0.00959419273
			10:[f7<281784.781] yes=21,no=22,missing=21
				21:leaf=0.0104160896
				22:leaf=-0.00331621221
	2:[f13<3.88164997] yes=5,no=6,missing=5
		5:[f5<0.44994998] yes=11,no=12,missing=11
			11:[f4<49.9821472] yes=23,no=24,missing=23
				23:leaf=0.0138526848
				24:leaf=-0.00209037657
			12:leaf=-0.00229629455
		6:[f10<1.31500006] yes=13,no=14,missing=13
			13:[f0<56.1497993] yes=25,no=26,missing=25
				25:leaf=-0.0100319935
				26:leaf=0.000858127605
			14:leaf=0.00539958989
booster[90]:
0:[f6<-2.16750002] yes=1,no=2,missing=1
	1:[f6<-3.97135019] yes=3,no=4,missing=3
		3:leaf=-0.0051724175
		4:[f8<915045] yes=7,no=8,missing=7
			7:leaf=-0.00315376301
			8:leaf=0.0115604801
	2:[f3<40.7564507] yes=5,no=6,missing=5
		5:[f6<1.47449994] yes=9,no=10,missing=9
			9:[f6<-1.22834992] yes=13,no=14,missing=13
				13:leaf=-0.00571167981
				14:leaf=0.00761916488
			10:[f6<2.58684993] yes=15,no=16,missing=15
				15:leaf=-0.00887641963
				16:leaf=0.000342186948
		6:[f20<345163.938] yes=11,no=12,missing=11
			11:[f17<0.314999998] yes=17,no=18,missing=17
				17:leaf=-0.00563654909
				18:leaf=0.00724919839
			12:[f15<1.18134999] yes=19,no=20,missing=19
				19:leaf=0.00426331954
				20:leaf=-0.011444021
booster[91]:
0:[f13<2.25234985] yes=1,no=2,missing=1
	1:[f9<0.296499997] yes=3,no=4,missing=3
		3:leaf=0.00419060467
		4:[f14<1.19210005] yes=7,no=8,missing=7
			7:leaf=-0.000370566791
			8:leaf=-0.0121080568
	2:[f2<43.759697] yes=5,no=6,missing=5
		5:[f3<42.066349] yes=9,no=10,missing=9
			9:[f3<40.8395996] yes=13,no=14,missing=13
				13:leaf=0.00412842585
				14:leaf=-0.0099097481
			10:[f13<3.8348] yes=15,no=16,missing=15
				15:leaf=0.0128465137
				16:leaf=-8.46204275e-05
		6:[f22<22962800] yes=11,no=12,missing=11
			11:[f6<-2.1479001] yes=17,no=18,missing=17
				17:leaf=0.00169904029
				18:leaf=-0.0118790558
			12:[f2<48.5637512] yes=19,no=20,missing=19
				19:leaf=0.00863850024
				20:leaf=-0.00602420326
booster[92]:
0:[f10<0.584999979] yes=1,no=2,missing=1
	1:[f22<19156700] yes=3,no=4,missing=3
		3:[f5<-0.0748500004] yes=7,no=8,missing=7
			7:leaf=-0.000231007332
			8:leaf=0.00886384677
		4:[f15<2.01585007] yes=9,no=10,missing=9
			9:leaf=-0.00529571204
			10:leaf=0.00221330742
	2:[f7<208465] yes=5,no=6,missing=5
		5:[f15<2.39610004] yes=11,no=12,missing=11
			11:[f9<0.302150011] yes=15,no=16,missing=15
				15:leaf=-0.00132445933
				16:leaf=-0.0137711419
			12:[f9<0.527199984] yes=17,no=18,missing=17
				17:leaf=0.00352240843
				18:leaf=-0.00306448713
		6:[f9<0.675799966] yes=13,no=14,missing=13
			13:[f2<38.375] yes=19,no=20,missing=19
				19:leaf=-0.00231801788
				20:leaf=0.00914615486
			14:[f6<-0.333999991] yes=21,no=22,missing=21
				21:leaf=-0.0103135984
				22:leaf=-0.000606804562
booster[93]:
0:[f10<1.54999995] yes=1,no=2,missing=1
	1:[f21<35975000] yes=3,no=4,missing=3
		3:[f8<896763.125] yes=7,no=8,missing=7
			7:[f17<1.23500001] yes=13,no=14,missing=13
				13:leaf=-0.00844044611
				14:leaf=0.00186834321
			8:[f6<1.41914999] yes=15,no=16,missing=15
				15:leaf=0.0115754409
				16:leaf=-0.00542307971
		4:[f8<2017248.5] yes=9,no=10,missing=9
			9:[f17<0.904999971] yes=17,no=18,missing=17
				17:leaf=-0.0115010496
				18:leaf=0.000835261773
			10:[f8<2147176] yes=19,no=20,missing=19
				19:leaf=0.0072417967
				20:leaf=-0.00273876009
	2:[f15<1.21085] yes=5,no=6,missing=5
		5:leaf=0.000462596683
		6:[f16<0.305000007] yes=11,no=12,missing=11
			11:leaf=-0.000721052347
			12:leaf=-0.0128167076
booster[94]:
0:[f15<1.98640001] yes=1,no=2,missing=1
	1:[f16<1.36500001] yes=3,no=4,missing=3
		3:[f8<869198.562] yes=7,no=8,missing=7
			7:[f1<42.7099991] yes=13,no=14,missing=13
				13:leaf=-0.0120500745
				14:leaf=-0.00258086878
			8:[f8<1031399] yes=15,no=16,missing=15
				15:leaf=0.00565286633
				16:leaf=-0.00670131762
		4:[f2<37.1894493] yes=9,no=10,missing=9
			9:[f2<35.7729988] yes=17,no=18,missing=17
				17:leaf=0.000129204462
				18:leaf=0.00806651078
			10:[f4<38.7312012] yes=19,no=20,missing=19
				19:leaf=-0.00646787882
				20:leaf=0.00488634175
	2:[f4<59.3241501] yes=5,no=6,missing=5
		5:[f6<3.86354995] yes=11,no=12,missing=11
			11:[f6<-0.38350001] yes=21,no=22,missing=21
				21:leaf=-0.000578516105
				22:leaf=0.0116216773
			12:leaf=-0.00446472643
		6:leaf=-0.00475938758
booster[95]:
0:[f15<2.05410004] yes=1,no=2,missing=1
	1:[f16<1.48500001] yes=3,no=4,missing=3
		3:[f14<1.41750002] yes=7,no=8,missing=7
			7:[f4<42.0599976] yes=13,no=14,missing=13
				13:leaf=-0.00744589558
				14:leaf=0.0104968939
			8:[f4<48.9305496] yes=15,no=16,missing=15
				15:leaf=-0.0110989073
				16:leaf=-0.000345439534
		4:leaf=0.00371919875
	2:[f9<0.651899993] yes=5,no=6,missing=5
		5:[f12<22.0697002] yes=9,no=10,missing=9
			9:[f17<0.324999988] yes=17,no=18,missing=17
				17:leaf=-0.000278569554
				18:leaf=0.0126049658
			10:leaf=-0.00131897151
		6:[f11<27.1066017] yes=11,no=12,missing=11
			11:[f6<0.19205001] yes=19,no=20,missing=19
				19:leaf=-0.00272592017
				20:leaf=0.00863164943
			12:[f7<303336.312] yes=21,no=22,missing=21
				21:leaf=-0.00927692279
				22:leaf=-0.00115409389
booster[96]:
0:[f12<16.10285] yes=1,no=2,missing=1
	1:[f9<0.296499997] yes=3,no=4,missing=3
		3:[f7<102412.172] yes=7,no=8,missing=7
			7:leaf=-0.00308702956
			8:leaf=0.00565318856
		4:[f7<226517.969] yes=9,no=10,missing=9
			9:[f10<0.625] yes=15,no=16,missing=15
				15:leaf=0.000944393862
				16:leaf=-0.0144206984
			10:[f4<36.3618011] yes=17,no=18,missing=17
				17:leaf=-0.0073694475
				18:leaf=0.00603080355
	2:[f11<17.9688988] yes=5,no=6,missing=5
		5:[f7<178966.422] yes=11,no=12,missing=11
			11:leaf=-0.00151807198
			12:[f7<247355.562] yes=19,no=20,missing=19
				19:leaf=0.0143795907
				20:leaf=-9.92405257e-05
		6:[f7<187736.844] yes=13,no=14,missing=13
			13:[f9<0.405799985] yes=21,no=22,missing=21
				21:leaf=-0.00635005906
				22:leaf=0.00869253464
			14:[f7<229782.594] yes=23,no=24,missing=23
				23:leaf=-0.0102748265
				24:leaf=-0.00275268848
booster[97]:
0:[f15<1.98640001] yes=1,no=2,missing=1
	1:[f1<44.9892998] yes=3,no=4,missing=3
		3:[f8<915045] yes=7,no=8,missing=7
			7:[f10<0.595000029] yes=15,no=16,missing=15
				15:leaf=0.00340502313
				16:leaf=-0.00789501518
			8:[f10<1.53999996] yes=17,no=18,missing=17
				17:leaf=0.0104703186
				18:leaf=-0.00400306238
		4:[f5<-0.547800004] yes=9,no=10,missing=9
			9:[f22<22106032] yes=19,no=20,missing=19
				19:leaf=-0.00571884261
				20:leaf=0.00659267325
			10:[f21<35461916] yes=21,no=22,missing=21
				21:leaf=-0.00108599861
				22:leaf=-0.0132711176
	2:[f10<0.834999979] yes=5,no=6,missing=5
		5:[f10<0.644999981] yes=11,no=12,missing=11
			11:[f0<50.9211998] yes=23,no=24,missing=23
				23:leaf=0.00186475541
				24:leaf=-0.00517957518
			12:leaf=0.0110829351
		6:[f5<0.7597] yes=13,no=14,missing=13
			13:[f0<50.0112495] yes=25,no=26,missing=25
				25:leaf=0.00124776049
				26:leaf=-0.00873145647
			14:[f17<0.730000019] yes=27,no=28,missing=27
				27:leaf=-0.00455341162
				28:leaf=0.00982324872
booster[98]:
0:[f21<28268544] yes=1,no=2,missing=1
	1:[f1<34.9508514] yes=3,no=4,missing=3
		3:leaf=-0.000943233259
		4:leaf=0.00878404547
	2:[f16<0.335000008] yes=5,no=6,missing=5
		5:[f7<230098.719] yes=7,no=8,missing=7
			7:[f17<0.324999988] yes=11,no=12,missing=11
				11:leaf=0.000538442924
				12:leaf=0.0108128339
			8:[f4<46.9139481] yes=13,no=14,missing=13
				13:leaf=0.00157188275
				14:leaf=-0.00708171306
		6:[f17<0.904999971] yes=9,no=10,missing=9
			9:[f12<22.3481998] yes=15,no=16,missing=15
				15:leaf=-0.0131341517
				16:leaf=-0.000984937185
			10:[f17<0.935000002] yes=17,no=18,missing=17
				17:leaf=0.00926536974
				18:leaf=-0.00667229248
booster[99]:
0:[f8<2000584.62] yes=1,no=2,missing=1
	1:[f10<0.834999979] yes=3,no=4,missing=3
		3:[f10<0.784999967] yes=7,no=8,missing=7
			7:[f7<185477.203] yes=13,no=14,missing=13
				13:leaf=0.00138067023
				14:leaf=-0.0083168475
			8:[f12<16.2350502] yes=15,no=16,missing=15
				15:leaf=-0.0015565845
				16:leaf=0.011400017
		4:[f12<14.6389008] yes=9,no=10,missing=9
			9:[f11<15.7521] yes=17,no=18,missing=17
				17:leaf=-0.00387598015
				18:leaf=0.00710569834
			10:[f7<375777.344] yes=19,no=20,missing=19
				19:leaf=-0.0100389086
				20:leaf=0.00181726518
	2:[f8<2255322.5] yes=5,no=6,missing=5
		5:leaf=0.0117241666
		6:[f6<0.628800035] yes=11,no=12,missing=11
			11:leaf=0.00324050593
			12:leaf=-0.00772405742
